{"learner":{"attributes":{},"feature_names":["TotalE","SignalVolE","FiducialVolE","MaxE","MaxELength","SignalVolEFrac","FiducialVolEFrac","pMaxE","CRT"],"feature_types":[],"gradient_booster":{"model":{"gbtree_model_param":{"num_parallel_tree":"1","num_trees":"100"},"iteration_indptr":[0,1,2,3,4,5,6,7,8,9,10,11,12,13,14,15,16,17,18,19,20,21,22,23,24,25,26,27,28,29,30,31,32,33,34,35,36,37,38,39,40,41,42,43,44,45,46,47,48,49,50,51,52,53,54,55,56,57,58,59,60,61,62,63,64,65,66,67,68,69,70,71,72,73,74,75,76,77,78,79,80,81,82,83,84,85,86,87,88,89,90,91,92,93,94,95,96,97,98,99,100],"tree_info":[0,0,0,0,0,0,0,0,0,0,0,0,0,0,0,0,0,0,0,0,0,0,0,0,0,0,0,0,0,0,0,0,0,0,0,0,0,0,0,0,0,0,0,0,0,0,0,0,0,0,0,0,0,0,0,0,0,0,0,0,0,0,0,0,0,0,0,0,0,0,0,0,0,0,0,0,0,0,0,0,0,0,0,0,0,0,0,0,0,0,0,0,0,0,0,0,0,0,0,0],"trees":[{"base_weights":[-3.6897727E-3,-6.099528E-1,6.3226824E0,-9.6119165E-2,-1.7156366E-1,-8.49832E-2,2.9376743E0,9.201145E0,-9.617108E-1,-4.0681332E-2,1.5103835E0,-2.859639E-2,-9.7281605E-2],"categories":[],"categories_nodes":[],"categories_segments":[],"categories_sizes":[],"default_left":[0,0,0,0,0,0,0,0,0,0,0,0,0],"id":0,"left_children":[1,3,5,-1,7,-1,-1,9,11,-1,-1,-1,-1],"loss_changes":[3.6622174E2,1.325098E1,1.4057073E3,0E0,3.048824E2,0E0,0E0,1.8776608E2,5.256653E-3,0E0,0E0,0E0,0E0],"parents":[2147483647,0,0,1,1,2,2,4,4,7,7,8,8],"right_children":[2,4,6,-1,8,-1,-1,10,12,-1,-1,-1,-1],"split_conditions":[9.0391606E-1,1.693189E0,5.6477427E0,-9.6119165E-2,4.3986847E1,-8.49832E-2,2.9376743E0,2.1050158E0,5.6861504E1,-4.0681332E-2,1.5103835E0,-2.859639E-2,-9.7281605E-2],"split_indices":[5,1,0,0,0,0,0,4,0,0,0,0,0],"split_type":[0,0,0,0,0,0,0,0,0,0,0,0,0],"sum_hessian":[9.347799E1,8.612785E1,7.350138E0,4.715475E1,3.8973103E1,6.3406043E0,1.0095338E0,2.20248E0,3.6770622E1,1.192499E0,1.0099809E0,1.0270282E0,3.574359E1],"tree_param":{"num_deleted":"0","num_feature":"9","num_nodes":"13","size_leaf_vector":"1"}},{"base_weights":[-1.2905869E-1,3.1713886E0,-9.507415E-1,-6.190179E-1,3.6471944E0,2.7800245E-2,-9.789236E-2,-8.410866E-1,1.762012E-1,-9.085769E-2,-4.314815E-3],"categories":[],"categories_nodes":[],"categories_segments":[],"categories_sizes":[],"default_left":[0,0,0,0,0,0,0,0,0,0,0],"id":1,"left_children":[1,3,5,7,-1,-1,-1,9,-1,-1,-1],"loss_changes":[2.9562643E2,2.7664644E3,3.2903595E0,1.2321575E1,0E0,0E0,0E0,1.0070705E0,0E0,0E0,0E0],"parents":[2147483647,0,0,1,1,2,2,3,3,7,7],"right_children":[2,4,6,8,-1,-1,-1,10,-1,-1,-1],"split_conditions":[2.1576214E0,4.405676E0,4.7602882E0,2.9155953E0,3.6471944E0,2.7800245E-2,-9.789236E-2,8.087826E0,1.762012E-1,-9.085769E-2,-4.314815E-3],"split_indices":[8,4,8,4,0,0,0,1,0,0,0],"split_type":[0,0,0,0,0,0,0,0,0,0,0],"sum_hessian":[1.0689816E2,2.0738472E1,8.615969E1,1.950028E1,1.2381912E0,1.7330639E0,8.442663E1,1.8428305E1,1.0719761E0,1.6863335E1,1.5649704E0],"tree_param":{"num_deleted":"0","num_feature":"9","num_nodes":"11","size_leaf_vector":"1"}},{"base_weights":[-3.826529E-1,2.3790693E-1,-9.763732E-2,-2.0506853E-1,4.5214505E0,-6.358364E-1,6.2393135E-1,1.7859608E0,-8.064716E-2,-7.050005E-1,9.406177E-2,2.258087E0,9.524332E-2,-9.198659E-2,-5.5581015E-1,6.110036E-1,1.4326897E-1,7.766163E-1,-2.6463664E-1,3.3811164E-1,-6.921876E-1,-4.677936E-2,9.911085E-2,2.157328E-1,-3.1162503E-1,-6.1302537E-1,1.2202649E-1,-3.6153194E-2,9.786587E-2,1.3144049E-2,-7.632394E-1,-5.077466E-2,1.2615996E-2,-6.765636E-2,-1.7317958E-2,1.5186878E-1,-4.7017348E-1,-8.026615E-2,-3.2594304E-3,1.6240207E-2,-6.903801E-2],"categories":[],"categories_nodes":[],"categories_segments":[],"categories_sizes":[],"default_left":[0,0,0,0,0,0,0,0,0,0,0,0,0,0,0,0,0,0,0,0,0,0,0,0,0,0,0,0,0,0,0,0,0,0,0,0,0,0,0,0,0],"id":2,"left_children":[1,3,-1,5,7,9,11,-1,-1,13,-1,15,17,-1,19,-1,21,23,25,27,29,-1,-1,-1,31,33,35,-1,-1,-1,37,-1,-1,-1,-1,-1,39,-1,-1,-1,-1],"loss_changes":[5.576566E1,1.4229388E2,0E0,2.4849804E1,5.136858E2,5.630312E0,2.0450327E1,0E0,0E0,9.060173E-1,0E0,4.63957E1,4.8931437E0,0E0,3.7232733E0,0E0,2.9349654E0,1.0981649E1,1.8604164E0,2.3527353E0,1.5727425E0,0E0,0E0,0E0,4.6852243E-1,8.234024E-2,6.6001573E0,0E0,0E0,0E0,6.4523697E-1,0E0,0E0,0E0,0E0,0E0,9.1462886E-1,0E0,0E0,0E0,0E0],"parents":[2147483647,0,0,1,1,3,3,4,4,5,5,6,6,9,9,11,11,12,12,14,14,16,16,17,17,18,18,19,19,20,20,24,24,25,25,26,26,30,30,36,36],"right_children":[2,4,-1,6,8,10,12,-1,-1,14,-1,16,18,-1,20,-1,22,24,26,28,30,-1,-1,-1,32,34,36,-1,-1,-1,38,-1,-1,-1,-1,-1,40,-1,-1,-1,-1],"split_conditions":[4.7602882E0,9.49907E0,-9.763732E-2,2.0108791E1,4.739239E1,1.3812318E1,2.3374298E1,1.7859608E0,-8.064716E-2,7.3833923E0,9.406177E-2,6.655362E-1,1.6844316E1,-9.198659E-2,4.405676E0,6.110036E-1,-4.1120472E-8,9.46932E-1,2.6629314E1,1.0296238E1,1.1939478E1,-4.677936E-2,9.911085E-2,2.157328E-1,2.5949797E1,4.1002586E-2,3.227909E1,-3.6153194E-2,9.786587E-2,1.3144049E-2,4.8089808E-1,-5.077466E-2,1.2615996E-2,-6.765636E-2,-1.7317958E-2,1.5186878E-1,3.8721252E1,-8.026615E-2,-3.2594304E-3,1.6240207E-2,-6.903801E-2],"split_indices":[8,4,0,0,0,3,1,0,0,0,0,6,3,0,4,0,8,6,0,0,1,0,0,0,1,8,1,0,0,0,8,0,0,0,0,0,1,0,0,0,0],"split_type":[0,0,0,0,0,0,0,0,0,0,0,0,0,0,0,0,0,0,0,0,0,0,0,0,0,0,0,0,0,0,0,0,0,0,0,0,0,0,0,0,0],"sum_hessian":[1.497261E2,7.350136E1,7.622475E1,6.747561E1,6.02575E0,4.4556175E1,2.2919432E1,1.0485888E0,4.9771614E0,4.321307E1,1.3431034E0,4.802858E0,1.8116573E1,1.559184E1,2.7621231E1,1.0327121E0,3.770146E0,5.8612614E0,1.2255313E1,3.460333E0,2.4160898E1,2.451518E0,1.318628E0,2.150458E0,3.7108033E0,6.138771E0,6.1165414E0,1.8620645E0,1.5982686E0,1.8512609E0,2.2309637E1,2.4523687E0,1.2584345E0,4.8936696E0,1.2451017E0,1.3554128E0,4.7611284E0,2.107402E1,1.2356179E0,1.2972087E0,3.4639199E0],"tree_param":{"num_deleted":"0","num_feature":"9","num_nodes":"41","size_leaf_vector":"1"}},{"base_weights":[-3.7361526E-1,2.3818368E-1,-9.107238E-1,-1.8619958E-1,3.2269025E0,-3.720565E-1,-9.764874E-2,-6.110839E-1,5.1706105E-1,5.1182394E0,-7.431754E-2,-5.6963257E-2,-7.242918E-2,-6.816347E-1,7.590281E-2,2.7673635E-1,1.7793342E-1,6.2421303E-2,7.669093E-1,-6.464218E-2,1.0772884E-1,-7.1339804E-1,1.53479045E-2,-4.4497016E-1,8.211232E-1,-9.101548E-2,-5.762352E-1,-6.178656E-1,5.4300714E-2,1.4324026E0,-1.1605017E-1,4.0200347E-1,-7.1802527E-1,-6.810313E-2,-1.4828572E-2,2.0025566E0,1.3102333E-2,5.942389E-2,-4.743187E-1,-3.1508833E-2,1.13122225E-1,-4.8499726E-2,-7.8820966E-2,-1.1417397E-2,2.9305336E0,-1.6091939E-2,-5.9101053E-2,-4.4263024E-2,3.687062E-2,4.2578712E-1,4.28785E-2],"categories":[],"categories_nodes":[],"categories_segments":[],"categories_sizes":[],"default_left":[0,0,0,0,0,0,0,0,0,0,0,0,0,0,0,0,0,0,0,0,0,0,0,0,0,0,0,0,0,0,0,0,0,0,0,0,0,0,0,0,0,0,0,0,0,0,0,0,0,0,0],"id":3,"left_children":[1,3,5,7,9,11,-1,13,15,17,-1,19,-1,21,-1,-1,23,-1,-1,-1,-1,25,-1,27,29,-1,31,33,-1,35,37,39,41,-1,-1,43,-1,-1,45,-1,-1,47,-1,-1,49,-1,-1,-1,-1,-1,-1],"loss_changes":[4.8806557E1,8.928478E1,2.4333954E0,1.8893139E1,6.949317E1,1.0913907E0,0E0,4.3079767E0,1.7790056E1,6.459375E1,0E0,5.0235133E0,0E0,1.1127377E0,0E0,0E0,9.134727E0,0E0,0E0,0E0,0E0,4.6362305E-1,0E0,2.345667E0,6.536676E0,0E0,3.659029E0,2.0995283E-1,0E0,4.786991E0,1.6343703E0,2.3002257E0,9.759035E-1,0E0,0E0,9.4921E0,0E0,0E0,5.443585E-2,0E0,0E0,6.751259E-1,0E0,0E0,9.061472E0,0E0,0E0,0E0,0E0,0E0,0E0],"parents":[2147483647,0,0,1,1,2,2,3,3,4,4,5,5,7,7,8,8,9,9,11,11,13,13,16,16,21,21,23,23,24,24,26,26,27,27,29,29,30,30,31,31,32,32,35,35,38,38,41,41,44,44],"right_children":[2,4,6,8,10,12,-1,14,16,18,-1,20,-1,22,-1,-1,24,-1,-1,-1,-1,26,-1,28,30,-1,32,34,-1,36,38,40,42,-1,-1,44,-1,-1,46,-1,-1,48,-1,-1,50,-1,-1,-1,-1,-1,-1],"split_conditions":[1.3155891E0,9.49907E0,5.3961787E0,2.0108791E1,5.0514187E1,3.645544E1,-9.764874E-2,1.3812318E1,2.0947977E1,3.659437E-3,-7.431754E-2,4.8305874E0,-7.242918E-2,1.5120852E1,7.590281E-2,2.7673635E-1,-4.1120472E-8,6.2421303E-2,7.669093E-1,-6.464218E-2,1.0772884E-1,6.712671E0,1.53479045E-2,2.9569384E1,9.46932E-1,-9.101548E-2,4.405676E0,2.6629314E1,5.4300714E-2,3.227909E1,2.9569384E1,1.0296238E1,1.1939478E1,-6.810313E-2,-1.4828572E-2,2.2658194E1,1.3102333E-2,5.942389E-2,6.196884E-1,-3.1508833E-2,1.13122225E-1,9.2209524E-1,-7.8820966E-2,-1.1417397E-2,8.881708E0,-1.6091939E-2,-5.9101053E-2,-4.4263024E-2,3.687062E-2,4.2578712E-1,4.28785E-2],"split_indices":[8,4,8,0,0,0,0,3,1,6,0,4,0,2,0,0,8,0,0,0,0,0,0,0,6,0,4,0,0,1,0,0,1,0,0,0,0,0,8,0,0,1,0,0,4,0,0,0,0,0,0],"split_type":[0,0,0,0,0,0,0,0,0,0,0,0,0,0,0,0,0,0,0,0,0,0,0,0,0,0,0,0,0,0,0,0,0,0,0,0,0,0,0,0,0,0,0,0,0,0,0,0,0,0,0],"sum_hessian":[1.4686758E2,6.8920044E1,7.794754E1,6.117167E1,7.7483745E0,9.205241E0,6.8742294E1,3.821477E1,2.2956898E1,5.0522766E0,2.696098E0,5.471982E0,3.7332597E0,3.6821243E1,1.3935286E0,2.068827E0,2.0888071E1,2.280051E0,2.7722256E0,3.8837352E0,1.5882466E0,3.561248E1,1.2087623E0,1.0767937E1,1.0120134E1,1.2313493E1,2.3298988E1,9.483027E0,1.2849091E0,5.8052087E0,4.314926E0,2.7172084E0,2.058178E1,7.9617524E0,1.5212752E0,3.6620247E0,2.143184E0,1.225888E0,3.0890381E0,1.6563317E0,1.0608767E0,2.113265E0,1.8468515E1,1.3834097E0,2.278615E0,1.4835849E0,1.6054533E0,1.0553482E0,1.057917E0,1.030115E0,1.2485E0],"tree_param":{"num_deleted":"0","num_feature":"9","num_nodes":"51","size_leaf_vector":"1"}},{"base_weights":[-3.403007E-1,2.550614E-1,-9.0087456E-1,-5.68466E-1,1.1677849E0,-3.3934975E-1,-9.738867E-2,-6.7762434E-1,3.2278782E-1,1.5258398E0,-8.3582036E-2,-1.7247545E-2,-7.092408E-2,-8.904998E-2,-5.07894E-1,1.0144166E-1,-3.5050243E-2,6.961117E-1,3.3720908E0,-6.1436947E-2,9.638069E-2,1.8236595E-1,-6.873911E-1,2.8475308E-1,2.2625387E0,3.8255563E-1,4.807591E-1,-4.7274426E-2,1.1095592E-1,-7.383408E-2,-9.734379E-3,1.8638642E0,-6.522288E-2,3.60802E-1,-2.9802103E-2,1.6313176E-1,-6.426697E-2,3.1615636E-1,-4.0251497E-2,-4.268267E-1,1.1345339E0,7.3358715E-2,-6.549846E-1,2.1165378E-1,-4.7526848E-2,-3.142726E-1,-7.7818885E-2,-6.252499E-2,3.2654207E-2],"categories":[],"categories_nodes":[],"categories_segments":[],"categories_sizes":[],"default_left":[0,0,0,0,0,0,0,0,0,0,0,0,0,0,0,0,0,0,0,0,0,0,0,0,0,0,0,0,0,0,0,0,0,0,0,0,0,0,0,0,0,0,0,0,0,0,0,0,0],"id":4,"left_children":[1,3,5,7,9,11,-1,13,15,17,-1,19,-1,-1,21,-1,-1,23,25,-1,-1,27,29,31,33,35,-1,-1,-1,-1,-1,37,39,-1,-1,-1,-1,-1,-1,41,43,-1,45,-1,-1,47,-1,-1,-1],"loss_changes":[4.649714E1,5.178288E1,2.605896E0,3.76233E0,2.4651768E1,1.1524969E0,0E0,7.3182774E-1,2.5216897E0,4.0543297E1,0E0,4.253701E0,0E0,0E0,2.6729045E0,0E0,0E0,1.2615008E1,3.430047E1,0E0,0E0,3.582078E0,4.2499352E-1,9.760593E0,1.5324181E1,5.936879E0,0E0,0E0,0E0,0E0,0E0,1.0678277E1,7.0973916E0,0E0,0E0,0E0,0E0,0E0,0E0,3.774E0,7.018882E0,0E0,2.1399736E-1,0E0,0E0,1.1165842E0,0E0,0E0,0E0],"parents":[2147483647,0,0,1,1,2,2,3,3,4,4,5,5,7,7,8,8,9,9,11,11,14,14,17,17,18,18,21,21,22,22,23,23,24,24,25,25,31,31,32,32,39,39,40,40,42,42,45,45],"right_children":[2,4,6,8,10,12,-1,14,16,18,-1,20,-1,-1,22,-1,-1,24,26,-1,-1,28,30,32,34,36,-1,-1,-1,-1,-1,38,40,-1,-1,-1,-1,-1,-1,42,44,-1,46,-1,-1,48,-1,-1,-1],"split_conditions":[1.3155891E0,5.81898E0,5.3961787E0,2.1368292E1,5.0514187E1,3.645544E1,-9.738867E-2,3.5137043E0,2.8567345E1,1.937521E1,-8.3582036E-2,4.8305874E0,-7.092408E-2,-8.904998E-2,4.405676E0,1.0144166E-1,-3.5050243E-2,8.601028E-2,3.659437E-3,-6.1436947E-2,9.638069E-2,1.0296238E1,2.4970807E-1,7.296606E0,9.813102E-1,3.4672415E-3,4.807591E-1,-4.7274426E-2,1.1095592E-1,-7.383408E-2,-9.734379E-3,6.901837E-2,2.6629314E1,3.60802E-1,-2.9802103E-2,1.6313176E-1,-6.426697E-2,3.1615636E-1,-4.0251497E-2,2.0947977E1,6.901837E-2,7.3358715E-2,2.469433E1,2.1165378E-1,-4.7526848E-2,1.5912344E1,-7.7818885E-2,-6.252499E-2,3.2654207E-2],"split_indices":[8,4,8,0,0,0,0,1,1,3,0,4,0,0,4,0,0,8,6,0,0,0,8,4,6,6,0,0,0,0,0,8,0,0,0,0,0,0,0,1,8,0,1,0,0,3,0,0,0],"split_type":[0,0,0,0,0,0,0,0,0,0,0,0,0,0,0,0,0,0,0,0,0,0,0,0,0,0,0,0,0,0,0,0,0,0,0,0,0,0,0,0,0,0,0,0,0,0,0,0,0],"sum_hessian":[1.3763112E2,6.7008835E1,7.062229E1,3.542391E1,3.1584923E1,8.775919E0,6.184637E1,3.1772228E1,3.651681E0,2.6998585E1,4.586337E0,5.250445E0,3.5254745E0,1.2210853E1,1.9561377E1,1.5513849E0,2.100296E0,1.957733E1,7.4212546E0,3.4962234E0,1.7542214E0,4.0337024E0,1.5527673E1,1.6441437E1,3.1358929E0,2.8183432E0,4.6029115E0,2.6508636E0,1.3828388E0,1.4062108E1,1.4655648E0,2.1980448E0,1.4243393E1,1.7875339E0,1.3483591E0,1.004115E0,1.8142282E0,1.1465569E0,1.051488E0,1.1439726E1,2.8036668E0,1.515683E0,9.924043E0,1.5458772E0,1.2577897E0,3.5785797E0,6.3454633E0,2.42571E0,1.1528697E0],"tree_param":{"num_deleted":"0","num_feature":"9","num_nodes":"49","size_leaf_vector":"1"}},{"base_weights":[-3.450673E-1,-1.16625905E-1,-9.7364776E-2,-4.1022217E-1,1.5905825E0,-8.2630163E-1,1.0275611E-1,4.0081817E-1,2.5274825E0,-9.440606E-2,-6.139643E-1,7.733837E-1,-3.721907E-1,8.412848E-1,-2.3841743E-1,5.7697482E-2,3.1226793E-1,-1.7992413E-1,-7.017478E-1,-7.1658975E-1,2.13179E0,-6.03246E-1,-9.071616E-2,-1.60366E-2,1.7360272E-1,-4.2012256E-2,7.0065605E-3,-5.913048E-2,4.232485E-2,-3.7817574E-1,-7.700843E-2,-8.404852E-2,3.8413708E-3,2.9151537E0,-1.9980201E-2,-6.932884E-1,1.4357244E-2,7.893817E-1,-6.3240993E-1,-4.8153337E-2,-5.2037956E-3,9.211772E-1,4.2922106E0,-1.1111453E-2,-7.429128E-2,-1.1047654E-1,1.8061312E-1,1.1921669E-2,-7.708753E-2,1.7942594E-1,-1.12492945E-2,1.0879711E-1,5.0696766E-1,1.5996367E-2,-3.5802376E-2],"categories":[],"categories_nodes":[],"categories_segments":[],"categories_sizes":[],"default_left":[0,0,0,0,0,0,0,0,0,0,0,0,0,0,0,0,0,0,0,0,0,0,0,0,0,0,0,0,0,0,0,0,0,0,0,0,0,0,0,0,0,0,0,0,0,0,0,0,0,0,0,0,0,0,0],"id":5,"left_children":[1,3,-1,5,7,9,11,13,15,-1,17,19,21,23,25,-1,-1,27,29,31,33,35,37,-1,-1,-1,-1,-1,-1,39,-1,-1,-1,41,-1,43,-1,45,47,-1,-1,49,51,-1,-1,53,-1,-1,-1,-1,-1,-1,-1,-1,-1],"loss_changes":[1.9665693E1,5.1860348E1,0E0,1.886074E1,1.5926365E1,6.3765335E-1,1.31194E1,2.4202125E0,7.84943E0,0E0,6.444125E-1,3.599034E1,1.5229723E0,4.6592155E0,2.5337815E-1,0E0,0E0,1.4282684E0,7.3161125E-2,8.6188173E-1,1.7310104E1,9.835162E-1,6.2740865E0,0E0,0E0,0E0,0E0,0E0,0E0,1.380403E-1,0E0,0E0,0E0,1.5045364E1,0E0,2.6132202E-1,0E0,4.8289347E0,9.300451E-1,0E0,0E0,3.9018157E0,3.9995346E0,0E0,0E0,3.00058E-1,0E0,0E0,0E0,0E0,0E0,0E0,0E0,0E0,0E0],"parents":[2147483647,0,0,1,1,3,3,4,4,5,5,6,6,7,7,8,8,10,10,11,11,12,12,13,13,14,14,17,17,18,18,19,19,20,20,21,21,22,22,29,29,33,33,35,35,37,37,38,38,41,41,42,42,45,45],"right_children":[2,4,-1,6,8,10,12,14,16,-1,18,20,22,24,26,-1,-1,28,30,32,34,36,38,-1,-1,-1,-1,-1,-1,40,-1,-1,-1,42,-1,44,-1,46,48,-1,-1,50,52,-1,-1,54,-1,-1,-1,-1,-1,-1,-1,-1,-1],"split_conditions":[4.8867176E1,2.5949797E1,-9.7364776E-2,1.646338E1,1.8022837E1,8.767846E0,9.548034E-1,9.46932E-1,5.277364E-2,-9.440606E-2,9.2029613E-1,1.3801938E-1,1.2963408E1,1.2963408E1,9.640579E-1,5.7697482E-2,3.1226793E-1,1.1370021E-1,9.301716E0,4.1964497E-2,3.645544E1,1.788309E1,2.469433E1,-1.60366E-2,1.7360272E-1,-4.2012256E-2,7.0065605E-3,-5.913048E-2,4.232485E-2,7.0671606E0,-7.700843E-2,-8.404852E-2,3.8413708E-3,1.3812318E1,-1.9980201E-2,1.770889E1,1.4357244E-2,9.7843075E-1,9.935857E-1,-4.8153337E-2,-5.2037956E-3,1.2963408E1,8.087826E0,-1.1111453E-2,-7.429128E-2,2.0749378E1,1.8061312E-1,1.1921669E-2,-7.708753E-2,1.7942594E-1,-1.12492945E-2,1.0879711E-1,5.0696766E-1,1.5996367E-2,-3.5802376E-2],"split_indices":[0,1,0,0,3,0,5,6,6,0,5,5,3,3,6,0,0,5,3,5,0,2,1,0,0,0,0,0,0,3,0,0,0,3,0,1,0,5,5,0,0,3,1,0,0,2,0,0,0,0,0,0,0,0,0],"split_type":[0,0,0,0,0,0,0,0,0,0,0,0,0,0,0,0,0,0,0,0,0,0,0,0,0,0,0,0,0,0,0,0,0,0,0,0,0,0,0,0,0,0,0,0,0,0,0,0,0,0,0,0,0,0,0],"sum_hessian":[1.3674443E2,1.01164375E2,3.5580048E1,8.6967834E1,1.4196537E1,4.7681957E1,3.928588E1,6.8832936E0,7.3132434E0,2.8455135E1,1.922682E1,1.6027128E1,2.3258753E1,3.8881063E0,2.9951873E0,2.1703186E0,5.1429253E0,3.747442E0,1.5479378E1,7.8687425E0,8.158385E0,1.2145587E1,1.1113166E1,2.2217069E0,1.6663996E0,1.6571698E0,1.3380175E0,2.239628E0,1.5078137E0,3.8384457E0,1.1640932E1,6.662252E0,1.2064905E0,5.919334E0,2.2390516E0,1.0902743E1,1.2428445E0,4.059839E0,7.053327E0,2.552918E0,1.2855277E0,3.0997896E0,2.8195443E0,1.1107674E0,9.791976E0,2.6265738E0,1.433265E0,1.1188622E0,5.934465E0,1.2815354E0,1.8182541E0,1.0190448E0,1.8004997E0,1.424329E0,1.2022446E0],"tree_param":{"num_deleted":"0","num_feature":"9","num_nodes":"55","size_leaf_vector":"1"}},{"base_weights":[-3.286693E-1,1.0155654E-1,-9.658547E-2,-2.5327483E-1,1.4010559E0,-6.7790234E-1,1.9342895E-1,2.069226E0,-8.009514E-2,-8.879224E-2,-5.3383386E-1,2.2880497E0,-2.74103E-1,2.831276E0,4.3098485E-1,2.8196123E-1,-6.7274094E-1,4.9335843E-1,5.137525E-1,1.3269477E-1,-5.5650043E-1,3.7426442E-1,2.3584098E-2,-5.5675823E-2,1.8737417E-1,-2.9853463E-2,8.5623205E-2,1.2399913E-2,-7.836935E-2,1.0288277E0,-5.440104E-2,1.2186035E-1,-1.5916827E-1,-6.9941837E-1,2.543216E-2,-3.4853727E-2,4.1785114E-2,-4.868723E-2,1.900443E-1,-4.7368377E-1,2.2139299E-1,-2.4548644E-2,-7.47259E-2,4.612619E-2,-4.4507515E-2,-6.85737E-2,1.4427816E-2,-6.790539E-2,9.473032E-2],"categories":[],"categories_nodes":[],"categories_segments":[],"categories_sizes":[],"default_left":[0,0,0,0,0,0,0,0,0,0,0,0,0,0,0,0,0,0,0,0,0,0,0,0,0,0,0,0,0,0,0,0,0,0,0,0,0,0,0,0,0,0,0,0,0,0,0,0,0],"id":6,"left_children":[1,3,-1,5,7,9,11,13,-1,-1,15,17,19,21,23,25,27,29,-1,31,33,-1,-1,-1,-1,-1,-1,35,-1,37,-1,-1,39,41,43,-1,-1,-1,-1,45,47,-1,-1,-1,-1,-1,-1,-1,-1],"loss_changes":[3.6483215E1,3.730579E1,0E0,1.22318945E1,2.7171665E1,5.2229404E-1,3.1834818E1,1.5737389E1,0E0,0E0,2.6870146E0,2.7750021E1,3.1692774E0,2.0621742E1,8.869717E0,1.5594354E0,1.4636993E0,3.1925144E0,0E0,3.9491122E0,1.3565512E0,0E0,0E0,0E0,0E0,0E0,0E0,6.798079E-1,0E0,5.51213E0,0E0,0E0,1.3284668E0,9.796381E-2,1.0539899E0,0E0,0E0,0E0,0E0,8.7412417E-1,4.1123E0,0E0,0E0,0E0,0E0,0E0,0E0,0E0,0E0],"parents":[2147483647,0,0,1,1,3,3,4,4,5,5,6,6,7,7,10,10,11,11,12,12,13,13,14,14,15,15,16,16,17,17,19,19,20,20,27,27,29,29,32,32,33,33,34,34,39,39,40,40],"right_children":[2,4,-1,6,8,10,12,14,-1,-1,16,18,20,22,24,26,28,30,-1,32,34,-1,-1,-1,-1,-1,-1,36,-1,38,-1,-1,40,42,44,-1,-1,-1,-1,46,48,-1,-1,-1,-1,-1,-1,-1,-1],"split_conditions":[4.7602882E0,8.881708E0,-9.658547E-2,1.764012E1,5.0514187E1,7.3833923E0,9.548034E-1,9.935857E-1,-8.009514E-2,-8.879224E-2,9.2029613E-1,6.1945784E-1,9.935857E-1,7.9025507E-1,2.5949797E1,2.0765227E-1,4.405676E0,6.146524E-1,5.137525E-1,5.139998E-1,9.130182E-1,3.7426442E-1,2.3584098E-2,-5.5675823E-2,1.8737417E-1,-2.9853463E-2,8.5623205E-2,1.0286358E1,-7.836935E-2,3.1216271E-2,-5.440104E-2,1.2186035E-1,2.2658194E1,1.9834155E-1,6.196884E-1,-3.4853727E-2,4.1785114E-2,-4.868723E-2,1.900443E-1,9.708788E-1,5.194758E-1,-2.4548644E-2,-7.47259E-2,4.612619E-2,-4.4507515E-2,-6.85737E-2,1.4427816E-2,-6.790539E-2,9.473032E-2],"split_indices":[8,4,0,0,0,0,5,5,0,0,5,5,5,8,1,5,4,5,0,6,6,0,0,0,0,0,0,1,0,5,0,0,0,6,8,0,0,0,0,5,6,0,0,0,0,0,0,0,0],"split_type":[0,0,0,0,0,0,0,0,0,0,0,0,0,0,0,0,0,0,0,0,0,0,0,0,0,0,0,0,0,0,0,0,0,0,0,0,0,0,0,0,0,0,0,0,0,0,0,0,0],"sum_hessian":[1.3172772E2,7.913595E1,5.2591766E1,6.2794785E1,1.6341166E1,3.1927546E1,3.086724E1,1.2583246E1,3.757919E0,1.0889644E1,2.10379E1,4.921995E0,2.5945246E1,8.091249E0,4.491996E0,2.911127E0,1.8126774E1,3.7397316E0,1.1822634E0,1.0848267E1,1.5096979E1,5.661311E0,2.4299386E0,3.0310047E0,1.4609913E0,1.6864978E0,1.2246293E0,2.650146E0,1.5476627E1,2.4719787E0,1.267753E0,1.6254271E0,9.22284E0,1.1958242E1,3.1387362E0,1.4762996E0,1.1738465E0,1.0636874E0,1.4082911E0,4.91562E0,4.30722E0,1.7247205E0,1.0233522E1,1.6396149E0,1.4991213E0,3.578117E0,1.337503E0,1.9513004E0,2.3559198E0],"tree_param":{"num_deleted":"0","num_feature":"9","num_nodes":"49","size_leaf_vector":"1"}},{"base_weights":[-3.1014004E-1,1.0122019E-1,-9.6276924E-2,-5.2575135E-1,8.720408E-1,-6.8708676E-1,1.9289792E-1,1.5720451E0,-1.9762239E-1,-8.926175E-2,-5.7371056E-1,-3.1604934E-1,1.8015234E-1,2.9407463E0,4.3680117E-2,-4.916796E-1,1.0710573E0,4.622954E-1,-7.5409305E-1,2.7526885E-2,-4.7928604E-1,9.9019516E-1,4.7873473E0,2.1429865E-1,-6.868432E-2,1.6924001E-2,-5.740106E-1,1.3202502E-1,2.989312E-2,9.9922353E-1,-5.3759843E-2,-3.2468575E-1,-8.2004225E-1,-6.8463944E-3,-6.2345874E-2,1.6922909E-1,2.575694E-1,6.3666743E-1,2.7629918E-1,-6.593913E-2,-2.6338145E-3,-7.0932703E-3,1.5449737E-1,-5.3827018E-2,1.8742086E-2,-2.1232132E-2,-8.4370536E-1,-4.0617645E-1,8.1422806E-2,-8.734834E-2,-2.8898364E-2,-1.0296869E-2,-5.5224128E-2],"categories":[],"categories_nodes":[],"categories_segments":[],"categories_sizes":[],"default_left":[0,0,0,0,0,0,0,0,0,0,0,0,0,0,0,0,0,0,0,0,0,0,0,0,0,0,0,0,0,0,0,0,0,0,0,0,0,0,0,0,0,0,0,0,0,0,0,0,0,0,0,0,0],"id":7,"left_children":[1,3,-1,5,7,9,11,13,15,-1,17,19,-1,21,23,25,27,29,31,-1,33,35,37,-1,-1,-1,39,-1,-1,41,-1,43,45,-1,-1,47,-1,-1,-1,-1,-1,-1,-1,-1,-1,-1,49,51,-1,-1,-1,-1,-1],"loss_changes":[3.4085953E1,3.842535E1,0E0,5.227846E0,2.6977276E1,3.2930946E-1,7.8049984E0,4.513611E1,6.1135077E0,0E0,5.220584E0,8.6209434E-1,0E0,3.6322304E1,1.870632E1,7.9599166E-1,2.0806813E-1,2.9455945E0,3.733139E-1,0E0,3.300364E-1,8.421636E0,2.982025E-1,0E0,0E0,0E0,5.2730846E-1,0E0,0E0,2.0185323E0,0E0,6.108284E-1,9.297371E-2,0E0,0E0,2.391906E0,0E0,0E0,0E0,0E0,0E0,0E0,0E0,0E0,0E0,0E0,4.2876244E-2,1.02679014E-1,0E0,0E0,0E0,0E0,0E0],"parents":[2147483647,0,0,1,1,3,3,4,4,5,5,6,6,7,7,8,8,10,10,11,11,13,13,14,14,15,15,16,16,17,17,18,18,20,20,21,21,22,22,26,26,29,29,31,31,32,32,35,35,46,46,47,47],"right_children":[2,4,-1,6,8,10,12,14,16,-1,18,20,-1,22,24,26,28,30,32,-1,34,36,38,-1,-1,-1,40,-1,-1,42,-1,44,46,-1,-1,48,-1,-1,-1,-1,-1,-1,-1,-1,-1,-1,50,52,-1,-1,-1,-1,-1],"split_conditions":[4.7602882E0,6.278134E0,-9.6276924E-2,8.303058E0,9.935857E-1,1.1616787E0,2.0108791E1,3.645544E1,9.49907E0,-8.926175E-2,9.2029613E-1,4.405676E0,1.8015234E-1,7.8750525E0,1.6570666E-1,1.2618071E1,2.6236546E1,3.8183643E1,4.405676E0,2.7526885E-2,1.5964049E1,1.4398015E-3,2.0535217E1,2.1429865E-1,-6.868432E-2,1.6924001E-2,2.5811852E1,1.3202502E-1,2.989312E-2,1.3140322E1,-5.3759843E-2,2.6103768E0,6.3296095E-2,-6.8463944E-3,-6.2345874E-2,6.1945784E-1,2.575694E-1,6.3666743E-1,2.7629918E-1,-6.593913E-2,-2.6338145E-3,-7.0932703E-3,1.5449737E-1,-5.3827018E-2,1.8742086E-2,-2.1232132E-2,1.6570666E-1,6.146524E-1,8.1422806E-2,-8.734834E-2,-2.8898364E-2,-1.0296869E-2,-5.5224128E-2],"split_indices":[8,4,0,2,5,1,0,0,4,0,5,4,0,4,8,2,3,0,4,0,2,8,3,0,0,0,2,0,0,0,0,4,2,0,0,5,0,0,0,0,0,0,0,0,0,0,8,5,0,0,0,0,0],"split_type":[0,0,0,0,0,0,0,0,0,0,0,0,0,0,0,0,0,0,0,0,0,0,0,0,0,0,0,0,0,0,0,0,0,0,0,0,0,0,0,0,0,0,0,0,0,0,0,0,0,0,0,0,0],"sum_hessian":[1.2560277E2,7.7560394E1,4.804237E1,4.2946457E1,3.4613937E1,3.510857E1,7.837888E0,2.063827E1,1.397567E1,1.0038148E1,2.5070421E1,6.5644984E0,1.2733897E0,1.0400324E1,1.0237945E1,1.18431E1,2.1325705E0,3.4860184E0,2.1584404E1,1.2716568E0,5.2928414E0,5.8048882E0,4.5954356E0,2.1438015E0,8.094143E0,1.1949468E0,1.0648153E1,1.0755597E0,1.0570109E0,2.2685246E0,1.2174937E0,3.6622293E0,1.7922174E1,1.7580706E0,3.534771E0,4.5537214E0,1.2511667E0,1.376502E0,3.2189336E0,9.035546E0,1.6126065E0,1.0600027E0,1.208522E0,2.5483134E0,1.1139159E0,1.0454462E0,1.6876728E1,2.6023898E0,1.9513319E0,1.5471563E1,1.4051639E0,1.4003773E0,1.2020124E0],"tree_param":{"num_deleted":"0","num_feature":"9","num_nodes":"53","size_leaf_vector":"1"}},{"base_weights":[-3.3568984E-1,-1.5519619E-1,-9.653326E-2,-4.991165E-1,7.586396E-1,-5.522875E-1,1.514298E-1,-7.297363E-2,1.084816E0,-7.7606726E-1,-1.806236E-1,1.5694681E0,2.7072755E-1,-9.276457E-2,-5.990791E-1,-4.911113E-1,1.7490782E-1,4.293027E-1,7.024174E-1,-3.3157155E-1,1.4575374E-1,-2.0760165E-1,-6.8394876E-1,4.959587E-2,-5.940963E-1,5.909973E-1,-3.4357727E-1,-1.3003011E-1,1.9642495E-1,-6.659257E-2,2.2057338E-2,-4.3838482E-2,3.0229643E-2,-1.6192919E-1,-7.395845E-1,-6.9923615E-1,-9.29122E-2,1.2444679E0,-4.0151577E-2,-4.971422E-1,2.3371404E-2,-6.448504E-2,5.572801E-1,-5.0629277E-2,2.7668431E-2,-1.0197288E-2,-7.77898E-2,-3.3502984E-1,-7.7157155E-2,2.6230736E-2,-4.985439E-2,2.4543622E-1,-1.3604219E-2,-4.507104E-2,5.11154E-2,-5.7751358E-2,-9.399797E-3,1.1192309E-1,-3.8111284E-2,9.127142E-3,-5.9663203E-2],"categories":[],"categories_nodes":[],"categories_segments":[],"categories_sizes":[],"default_left":[0,0,0,0,0,0,0,0,0,0,0,0,0,0,0,0,0,0,0,0,0,0,0,0,0,0,0,0,0,0,0,0,0,0,0,0,0,0,0,0,0,0,0,0,0,0,0,0,0,0,0,0,0,0,0,0,0,0,0,0,0],"id":8,"left_children":[1,3,-1,5,7,9,-1,-1,11,13,15,17,19,-1,21,23,25,-1,27,29,-1,31,33,-1,35,37,39,41,-1,-1,-1,-1,-1,43,45,47,49,51,53,55,-1,-1,57,-1,-1,-1,-1,59,-1,-1,-1,-1,-1,-1,-1,-1,-1,-1,-1,-1,-1],"loss_changes":[1.4474914E1,3.2186714E1,0E0,8.77301E0,1.4419287E1,5.9281044E0,0E0,0E0,8.818275E0,6.578865E-1,3.2566633E0,3.1169888E1,7.596236E0,0E0,6.452007E-1,1.8800151E0,3.2509654E0,0E0,1.3045471E1,1.5158834E0,0E0,7.9823196E-1,4.3309593E-1,0E0,7.031784E-1,3.4342477E0,7.298711E-1,3.2871442E0,0E0,0E0,0E0,0E0,0E0,6.1038715E-1,3.3406734E-1,5.490923E-2,6.611655E-1,7.1197896E0,1.3944252E0,1.3324249E-1,0E0,0E0,2.5780296E0,0E0,0E0,0E0,0E0,4.7139975E-1,0E0,0E0,0E0,0E0,0E0,0E0,0E0,0E0,0E0,0E0,0E0,0E0,0E0],"parents":[2147483647,0,0,1,1,3,3,4,4,5,5,8,8,9,9,10,10,11,11,12,12,14,14,15,15,16,16,18,18,19,19,21,21,22,22,24,24,25,25,26,26,27,27,33,33,34,34,35,35,36,36,37,37,38,38,39,39,42,42,47,47],"right_children":[2,4,-1,6,8,10,-1,-1,12,14,16,18,20,-1,22,24,26,-1,28,30,-1,32,34,-1,36,38,40,42,-1,-1,-1,-1,-1,44,46,48,50,52,54,56,-1,-1,58,-1,-1,-1,-1,60,-1,-1,-1,-1,-1,-1,-1,-1,-1,-1,-1,-1,-1],"split_conditions":[4.8867176E1,7.8750525E0,-9.653326E-2,1.3708807E0,2.56911E0,1.764012E1,1.514298E-1,-7.297363E-2,3.645544E1,8.767846E0,5.81898E0,2.469433E1,2.3830921E1,-9.276457E-2,4.405676E0,4.405676E0,8.9229673E-1,4.293027E-1,1.937521E1,1.9708791E0,1.4575374E-1,3.243268E0,6.3296095E-2,4.959587E-2,2.3969322E1,7.296606E0,9.640579E-1,2.6629314E1,1.9642495E-1,-6.659257E-2,2.2057338E-2,-4.3838482E-2,3.0229643E-2,3.1174538E-1,1.1939478E1,1.8827545E1,1.2963408E1,3.0775896E1,1.57053385E1,1.48559265E1,2.3371404E-2,-6.448504E-2,3.1289715E1,-5.0629277E-2,2.7668431E-2,-1.0197288E-2,-7.77898E-2,1.2963408E1,-7.7157155E-2,2.6230736E-2,-4.985439E-2,2.4543622E-1,-1.3604219E-2,-4.507104E-2,5.11154E-2,-5.7751358E-2,-9.399797E-3,1.1192309E-1,-3.8111284E-2,9.127142E-3,-5.9663203E-2],"split_indices":[0,4,0,7,1,0,0,0,0,0,4,1,3,0,4,4,6,0,3,2,0,4,2,0,0,4,6,0,0,0,0,0,0,1,1,1,3,0,1,3,0,0,2,0,0,0,0,3,0,0,0,0,0,0,0,0,0,0,0,0,0],"split_type":[0,0,0,0,0,0,0,0,0,0,0,0,0,0,0,0,0,0,0,0,0,0,0,0,0,0,0,0,0,0,0,0,0,0,0,0,0,0,0,0,0,0,0,0,0,0,0,0,0,0,0,0,0,0,0,0,0,0,0,0,0],"sum_hessian":[1.2768611E2,1.0020716E2,2.7478947E1,7.3136284E1,2.7070877E1,7.196159E1,1.1746935E0,4.643748E0,2.242713E1,4.4237812E1,2.772378E1,1.3476354E1,8.950775E0,2.1544832E1,2.2692982E1,1.4595819E1,1.3127959E1,2.3000848E0,1.1176269E1,6.4155436E0,2.5352316E0,4.6571465E0,1.8035835E1,1.0184591E0,1.357736E1,7.2055664E0,5.9223933E0,7.27428E0,3.901989E0,3.867493E0,2.5480504E0,3.302613E0,1.3545336E0,2.1137195E0,1.5922116E1,1.0896328E1,2.6810322E0,3.0627482E0,4.142818E0,4.7876654E0,1.1347277E0,4.194342E0,3.0799377E0,1.0976397E0,1.0160798E0,1.110061E0,1.4812056E1,2.738696E0,8.157632E0,1.6177092E0,1.0633231E0,1.2176874E0,1.845061E0,2.4790957E0,1.6637223E0,3.6312177E0,1.1564479E0,1.8058221E0,1.2741154E0,1.2891046E0,1.4495914E0],"tree_param":{"num_deleted":"0","num_feature":"9","num_nodes":"61","size_leaf_vector":"1"}},{"base_weights":[-2.907386E-1,-9.898271E-2,-9.618074E-2,-5.656211E-1,6.376993E-1,-8.248263E-1,-2.7080116E-1,1.9381565E-1,1.6351242E0,-9.206743E-2,-5.5110034E-2,8.49156E-1,-5.069096E-1,-7.3794365E-2,4.4370997E-1,2.6420407E0,5.3220826E-1,-5.534956E-2,1.6425584E-1,-5.773146E-1,4.1577503E-2,1.170855E0,-3.9090154E-1,3.3922932E-1,1.4025424E-1,-7.661962E-2,1.5958719E-1,1.6288804E-2,-6.3325685E-1,2.8802285E-1,3.2069543E-1,-5.9090525E-1,1.1727238E-2,3.940547E-2,-6.153823E-2,-6.888244E-1,1.1061221E-2,-3.588413E-1,1.0444382E0,2.0440114E-3,-7.3969567E-1,-1.643389E-2,-7.130203E-1,-8.339542E-3,-6.2305164E-2,1.8820782E-1,-1.2710698E-2,-2.4612177E-2,-8.1662975E-2,-7.3990345E-2,-1.7145509E-2],"categories":[],"categories_nodes":[],"categories_segments":[],"categories_sizes":[],"default_left":[0,0,0,0,0,0,0,0,0,0,0,0,0,0,0,0,0,0,0,0,0,0,0,0,0,0,0,0,0,0,0,0,0,0,0,0,0,0,0,0,0,0,0,0,0,0,0,0,0,0,0],"id":9,"left_children":[1,3,-1,5,7,9,11,13,15,-1,-1,17,19,-1,21,23,25,-1,-1,27,-1,29,31,-1,-1,33,-1,-1,35,-1,37,39,-1,-1,-1,41,-1,43,45,-1,47,-1,49,-1,-1,-1,-1,-1,-1,-1,-1],"loss_changes":[1.5151081E1,3.2421566E1,0E0,4.1804276E0,1.590385E1,2.843418E-1,7.9535303E0,6.4950275E0,1.0975098E1,0E0,0E0,6.837756E0,1.8070841E0,0E0,1.3512468E1,4.2728043E-1,4.3788714E0,0E0,0E0,1.0485582E0,0E0,1.6146065E1,1.1634345E0,0E0,0E0,1.5444983E0,0E0,0E0,9.6206474E-1,0E0,4.7862253E0,7.328558E-1,0E0,0E0,0E0,1.3764954E-1,0E0,3.388797E-1,4.7527037E0,0E0,4.100418E-2,0E0,1.4823437E-1,0E0,0E0,0E0,0E0,0E0,0E0,0E0,0E0],"parents":[2147483647,0,0,1,1,3,3,4,4,5,5,6,6,7,7,8,8,11,11,12,12,14,14,15,15,16,16,19,19,21,21,22,22,25,25,28,28,30,30,31,31,35,35,37,37,38,38,40,40,42,42],"right_children":[2,4,-1,6,8,10,12,14,16,-1,-1,18,20,-1,22,24,26,-1,-1,28,-1,30,32,-1,-1,34,-1,-1,36,-1,38,40,-1,-1,-1,42,-1,44,46,-1,48,-1,50,-1,-1,-1,-1,-1,-1,-1,-1],"split_conditions":[4.8867176E1,2.2658194E1,-9.618074E-2,1.423866E1,1.5120852E1,8.767846E0,9.2029613E-1,1.0703182E-1,9.46932E-1,-9.206743E-2,-5.5110034E-2,9.2209524E-1,9.640579E-1,-7.3794365E-2,9.7843075E-1,2.0535217E1,2.8975729E1,-5.534956E-2,1.6425584E-1,1.01222725E1,4.1577503E-2,3.0775896E1,1.8022837E1,3.3922932E-1,1.4025424E-1,2.9569384E1,1.5958719E-1,1.6288804E-2,1.5912344E1,2.8802285E-1,1.504453E-1,2.8303953E1,1.1727238E-2,3.940547E-2,-6.153823E-2,1.2683824E-1,1.1061221E-2,4.483907E-3,3.3792686E1,2.0440114E-3,3.8430265E-1,-1.643389E-2,1.788309E1,-8.339542E-3,-6.2305164E-2,1.8820782E-1,-1.2710698E-2,-2.4612177E-2,-8.1662975E-2,-7.3990345E-2,-1.7145509E-2],"split_indices":[0,0,0,0,2,0,5,5,6,0,0,1,6,0,5,3,2,0,0,3,0,0,3,0,0,0,0,0,3,0,2,0,0,0,0,2,0,6,1,0,6,0,2,0,0,0,0,0,0,0,0],"split_type":[0,0,0,0,0,0,0,0,0,0,0,0,0,0,0,0,0,0,0,0,0,0,0,0,0,0,0,0,0,0,0,0,0,0,0,0,0,0,0,0,0,0,0,0,0,0,0,0,0,0,0],"sum_hessian":[1.1748087E2,9.226416E1,2.5216713E1,5.6626987E1,3.5637173E1,2.9176939E1,2.7450048E1,2.5488398E1,1.0148776E1,1.9859455E1,9.317483E0,4.3273277E0,2.312272E1,4.977226E0,2.0511173E1,4.5757766E0,5.5729995E0,1.6726452E0,2.6546826E0,2.1831211E1,1.2915101E0,1.0745988E1,9.765184E0,1.7684989E0,2.8072777E0,4.1344547E0,1.4385446E0,1.3996716E0,2.043154E1,2.7761848E0,7.969803E0,6.8904757E0,2.8747091E0,2.350021E0,1.784434E0,1.908023E1,1.3513083E0,4.3704686E0,3.5993342E0,1.5176066E0,5.372869E0,1.1850209E0,1.789521E1,2.7838624E0,1.586606E0,1.7451104E0,1.8542238E0,1.290801E0,4.082068E0,1.6699997E1,1.1952134E0],"tree_param":{"num_deleted":"0","num_feature":"9","num_nodes":"51","size_leaf_vector":"1"}},{"base_weights":[-2.8749812E-1,5.2005827E-2,-9.586572E-2,-5.11741E-1,7.0931244E-1,-8.6685784E-2,-4.0603644E-1,8.9240164E-1,-7.860595E-2,1.3699818E-1,-5.267625E-1,6.0956216E-1,2.1558418E0,-3.4982327E-1,1.4385048E-1,-6.028794E-1,6.0480263E-2,1.6489728E-1,1.1617239E0,3.2046757E0,-1.7955273E-2,-4.6839762E-2,1.0094017E-2,-6.439797E-1,9.307036E-3,1.0492786E0,-1.0745007E-1,1.5771159E0,-4.8417922E-2,3.842508E-1,7.1745954E-2,7.4319555E-3,-6.832124E-1,-4.4206277E-2,1.7354506E-1,-3.9794636E-1,6.4503354E-1,2.1372773E-2,2.007816E0,-9.815976E-3,-7.065266E-1,1.8328717E-1,-6.852198E-2,-1.3087208E-3,1.1317384E-1,2.759752E-2,-2.4476642E-2,3.8226932E-2,2.1904238E-1,-7.5115226E-2,-2.7208135E-1,-3.96599E-2,6.596612E-2,6.45974E-3,-4.3397885E-2],"categories":[],"categories_nodes":[],"categories_segments":[],"categories_sizes":[],"default_left":[0,0,0,0,0,0,0,0,0,0,0,0,0,0,0,0,0,0,0,0,0,0,0,0,0,0,0,0,0,0,0,0,0,0,0,0,0,0,0,0,0,0,0,0,0,0,0,0,0,0,0,0,0,0,0],"id":10,"left_children":[1,3,-1,5,7,-1,9,11,-1,13,15,17,19,21,-1,23,-1,25,27,29,-1,-1,-1,31,-1,33,35,37,-1,-1,-1,-1,39,-1,-1,41,43,45,47,-1,49,51,-1,-1,-1,-1,-1,-1,-1,-1,53,-1,-1,-1,-1],"loss_changes":[2.6449802E1,2.9224913E1,0E0,1.2437086E0,1.0661652E1,0E0,2.343069E0,1.0435341E1,0E0,4.997914E0,2.8232827E0,6.7468777E0,1.4341146E1,3.662187E-1,0E0,8.393059E-1,0E0,4.1637154E0,9.269144E0,3.479847E0,0E0,0E0,0E0,7.793617E-1,0E0,4.914504E0,3.265856E0,6.770521E0,0E0,0E0,0E0,0E0,2.6637077E-1,0E0,0E0,1.8872054E0,1.3651556E0,2.8542885E-1,1.5234032E0,0E0,2.5139713E-1,1.4435674E0,0E0,0E0,0E0,0E0,0E0,0E0,0E0,0E0,2.3286045E-1,0E0,0E0,0E0,0E0],"parents":[2147483647,0,0,1,1,3,3,4,4,6,6,7,7,9,9,10,10,11,11,12,12,13,13,15,15,17,17,18,18,19,19,23,23,25,25,26,26,27,27,32,32,35,35,36,36,37,37,38,38,40,40,41,41,50,50],"right_children":[2,4,-1,6,8,-1,10,12,-1,14,16,18,20,22,-1,24,-1,26,28,30,-1,-1,-1,32,-1,34,36,38,-1,-1,-1,-1,40,-1,-1,42,44,46,48,-1,50,52,-1,-1,-1,-1,-1,-1,-1,-1,54,-1,-1,-1,-1],"split_conditions":[5.3961787E0,6.278134E0,-9.586572E-2,1.09018E0,5.0514187E1,-8.6685784E-2,4.405676E0,2.0300977E-1,-7.860595E-2,3.243268E0,4.8089808E-1,8.881708E0,3.1289715E1,2.6103768E0,1.4385048E-1,2.9569384E1,6.0480263E-2,2.0947977E1,1.6570666E-1,3.382834E1,-1.7955273E-2,-4.6839762E-2,1.0094017E-2,1.1939478E1,9.307036E-3,1.5326673E1,1.9959692E1,2.5409721E1,-4.8417922E-2,3.842508E-1,7.1745954E-2,7.4319555E-3,1.2683824E-1,-4.4206277E-2,1.7354506E-1,1.2618071E1,7.296606E0,5.4008707E-2,1.1939478E1,-9.815976E-3,1.788309E1,6.7837195E0,-6.852198E-2,-1.3087208E-3,1.1317384E-1,2.759752E-2,-2.4476642E-2,3.8226932E-2,2.1904238E-1,-7.5115226E-2,2.287603E1,-3.96599E-2,6.596612E-2,6.45974E-3,-4.3397885E-2],"split_indices":[8,4,0,1,0,0,4,8,0,4,8,4,2,4,0,0,0,1,8,0,0,0,0,1,0,0,2,0,0,0,0,0,2,0,0,2,4,8,1,0,2,4,0,0,0,0,0,0,0,0,2,0,0,0,0],"split_type":[0,0,0,0,0,0,0,0,0,0,0,0,0,0,0,0,0,0,0,0,0,0,0,0,0,0,0,0,0,0,0,0,0,0,0,0,0,0,0,0,0,0,0,0,0,0,0,0,0,0,0,0,0,0,0],"sum_hessian":[1.14859795E2,7.688848E1,3.797131E1,4.1509136E1,3.5379345E1,7.869753E0,3.3639385E1,3.1879349E1,3.4999945E0,6.09388E0,2.7545504E1,2.7259398E1,4.619951E0,4.9671583E0,1.1267219E0,2.6247154E1,1.2983489E0,1.5818854E1,1.1440544E1,2.9312818E0,1.688669E0,3.9016893E0,1.0654691E0,2.4854038E1,1.3931164E0,3.0528264E0,1.2766028E1,9.168417E0,2.2721267E0,1.8993112E0,1.0319705E0,1.2408757E0,2.3613163E1,1.074103E0,1.9787235E0,9.550293E0,3.2157347E0,2.2154727E0,6.9529443E0,1.1045895E0,2.2508574E1,3.2786512E0,6.271642E0,1.7808226E0,1.4349121E0,1.1133891E0,1.1020834E0,1.0145923E0,5.938352E0,1.9750803E1,2.7577698E0,1.5541999E0,1.7244514E0,1.0906581E0,1.6671118E0],"tree_param":{"num_deleted":"0","num_feature":"9","num_nodes":"55","size_leaf_vector":"1"}},{"base_weights":[-2.8694028E-1,1.2923397E-2,-9.5303684E-2,-3.1113398E-1,6.567259E-1,-4.1552153E-1,3.9468592E-1,8.4041905E-1,-7.224249E-2,-5.0807935E-1,2.1473297E-1,1.3986622E-1,-2.108933E-1,3.6602062E-1,1.4261391E0,-5.488324E-1,4.472698E-2,-4.094305E-1,8.439247E-2,2.5807349E-2,-5.72683E-2,1.3468251E0,-6.052021E-1,2.2300242E-1,-1.458937E-1,-8.540249E-2,-4.6227077E-1,-1.2500479E-3,-6.26344E-2,2.992252E-1,3.0141884E-1,-7.047038E-2,-1.073875E-3,1.8395988E-2,-5.0325103E-2,2.7530256E-1,-5.718316E-1,-2.5791824E-1,1.3881622E-1,-1.8735537E-1,9.9758886E-2,-6.6402465E-2,-6.262003E-1,3.2085124E-2,-6.8643175E-2,6.575266E-4,-3.4028705E-2,-3.447909E-2,3.610178E-2,-2.0661687E-2,-6.462292E-1,-6.998605E-2,-3.7657637E-2],"categories":[],"categories_nodes":[],"categories_segments":[],"categories_sizes":[],"default_left":[0,0,0,0,0,0,0,0,0,0,0,0,0,0,0,0,0,0,0,0,0,0,0,0,0,0,0,0,0,0,0,0,0,0,0,0,0,0,0,0,0,0,0,0,0,0,0,0,0,0,0,0,0],"id":11,"left_children":[1,3,-1,5,7,9,11,13,-1,15,17,-1,19,21,23,25,-1,27,-1,-1,-1,29,31,-1,33,-1,35,-1,-1,-1,37,-1,-1,-1,-1,39,41,43,-1,45,-1,47,49,-1,-1,-1,-1,-1,-1,-1,51,-1,-1],"loss_changes":[2.2691883E1,1.6745438E1,0E0,4.099725E0,7.413765E0,2.8521385E0,4.791138E0,6.1944904E0,0E0,1.8533449E0,2.9862533E0,0E0,1.0778745E0,1.4818295E1,1.3558546E1,6.634445E-1,0E0,3.4078127E-1,0E0,0E0,0E0,1.2212599E1,4.7013927E-1,0E0,6.2084925E-1,0E0,2.8553462E0,0E0,0E0,0E0,3.867855E0,0E0,0E0,0E0,0E0,1.8553913E0,7.661352E-1,1.3748261E0,0E0,1.174691E-1,0E0,5.972618E-1,8.85067E-2,0E0,0E0,0E0,0E0,0E0,0E0,0E0,9.432602E-2,0E0,0E0],"parents":[2147483647,0,0,1,1,3,3,4,4,5,5,6,6,7,7,9,9,10,10,12,12,13,13,14,14,15,15,17,17,21,21,22,22,24,24,26,26,30,30,35,35,36,36,37,37,39,39,41,41,42,42,50,50],"right_children":[2,4,-1,6,8,10,12,14,-1,16,18,-1,20,22,24,26,-1,28,-1,-1,-1,30,32,-1,34,-1,36,-1,-1,-1,38,-1,-1,-1,-1,40,42,44,-1,46,-1,48,50,-1,-1,-1,-1,-1,-1,-1,52,-1,-1],"split_conditions":[5.3961787E0,7.8750525E0,-9.5303684E-2,1.788309E1,4.823224E1,6.7837195E0,2.4729977E1,2.5949797E1,-7.224249E-2,1.3708807E0,-1.6950894E-8,1.3986622E-1,1.5912344E1,2.469433E1,6.196884E-1,3.382329E0,4.472698E-2,9.3064076E-1,8.439247E-2,2.5807349E-2,-5.72683E-2,2.0535217E1,4.1002586E-2,2.2300242E-1,9.813102E-1,-8.540249E-2,4.405676E0,-1.2500479E-3,-6.26344E-2,2.992252E-1,3.659437E-3,-7.047038E-2,-1.073875E-3,1.8395988E-2,-5.0325103E-2,3.243268E0,1.1939478E1,1.3644995E-1,1.3881622E-1,8.9229673E-1,9.9758886E-2,3.5137043E0,6.3296095E-2,3.2085124E-2,-6.8643175E-2,6.575266E-4,-3.4028705E-2,-3.447909E-2,3.610178E-2,-2.0661687E-2,1.6570666E-1,-6.998605E-2,-3.7657637E-2],"split_indices":[8,4,0,2,1,4,2,1,0,7,8,0,3,1,8,3,0,6,0,0,0,3,8,0,6,0,4,0,0,0,6,0,0,0,0,4,1,2,0,6,0,1,2,0,0,0,0,0,0,0,8,0,0],"split_type":[0,0,0,0,0,0,0,0,0,0,0,0,0,0,0,0,0,0,0,0,0,0,0,0,0,0,0,0,0,0,0,0,0,0,0,0,0,0,0,0,0,0,0,0,0,0,0,0,0,0,0,0,0],"sum_hessian":[1.1254651E2,7.828481E1,3.4261696E1,5.2417324E1,2.5867489E1,4.6022152E1,6.395173E0,2.3171795E1,2.695694E0,4.029793E1,5.724218E0,1.913386E0,4.481787E0,1.3700285E1,9.47151E0,3.905735E1,1.2405835E0,3.0489297E0,2.6752882E0,2.0766382E0,2.405149E0,6.6241007E0,7.0761843E0,5.989909E0,3.4816005E0,6.671037E0,3.238631E1,1.4511322E0,1.5977975E0,1.849996E0,4.774105E0,5.902735E0,1.1734493E0,2.0627918E0,1.4188088E0,3.9929092E0,2.8393402E1,3.6553812E0,1.1187236E0,2.8853295E0,1.1075798E0,2.9733653E0,2.5420038E1,1.6619388E0,1.9934425E0,1.6940863E0,1.1912432E0,1.9176669E0,1.0556984E0,1.6737055E0,2.3746332E1,1.8476189E1,5.2701435E0],"tree_param":{"num_deleted":"0","num_feature":"9","num_nodes":"53","size_leaf_vector":"1"}},{"base_weights":[-3.1678978E-1,-6.812287E-2,-9.4894685E-2,-2.8490618E-1,6.787362E-1,1.8907034E-1,-4.830023E-1,8.2114226E-1,-6.036969E-2,-1.0374626E-1,2.5527892E-1,-5.330611E-1,4.6821114E-2,-5.3189654E-2,9.570809E-1,-3.93946E-1,9.1793317E-1,-6.316231E-1,-1.3559149E-2,1.2830261E0,1.08368024E-1,-8.077558E-2,-7.6015994E-2,2.0006333E-1,-2.9384604E-2,-7.3284125E-1,-2.4668479E-1,3.1786698E-1,-4.0440205E-1,2.0867665E-1,2.9531884E-1,-5.6841373E-2,1.11560225E-1,4.339535E-1,-2.67582E-1,-1.2072965E-2,-7.575281E-1,5.965147E-2,-5.2428055E-1,-3.3447817E-2,8.199615E-2,-5.6299932E-2,-4.6868953E-3,-2.1386193E-1,1.34763E-1,-3.207236E-2,9.6499585E-2,4.692905E-2,-4.5975724E-1,-2.897928E-1,-7.877953E-2,-1.2666571E-2,-6.4887667E-1,-5.8762502E-2,1.8316228E-2,7.880895E-3,-6.053156E-1,-4.7742184E-2,6.6823447E-3,-2.3865692E-2,-7.318694E-2,-7.0069365E-2,-2.1659566E-2],"categories":[],"categories_nodes":[],"categories_segments":[],"categories_sizes":[],"default_left":[0,0,0,0,0,0,0,0,0,0,0,0,0,0,0,0,0,0,0,0,0,0,0,0,0,0,0,0,0,0,0,0,0,0,0,0,0,0,0,0,0,0,0,0,0,0,0,0,0,0,0,0,0,0,0,0,0,0,0,0,0,0,0],"id":12,"left_children":[1,3,-1,5,7,9,11,13,-1,15,-1,17,-1,-1,19,21,23,25,27,29,31,-1,33,-1,-1,35,37,39,41,-1,43,-1,-1,45,47,-1,49,-1,51,-1,-1,-1,-1,53,-1,-1,-1,-1,55,57,-1,-1,59,-1,-1,-1,61,-1,-1,-1,-1,-1,-1],"loss_changes":[1.8031136E1,1.3744062E1,0E0,6.247947E0,3.988223E0,1.4139343E1,2.4649372E0,3.7528858E0,0E0,5.9348483E0,0E0,2.2784967E0,0E0,0E0,4.393118E0,1.9566181E0,6.437304E0,1.2811623E0,1.1835929E0,8.707582E0,4.4776196E0,0E0,1.0713824E0,0E0,0E0,3.498211E-1,2.494129E0,1.9012567E0,2.1049303E-1,0E0,3.7357938E0,0E0,0E0,1.5324472E0,1.3099284E0,0E0,1.6640568E-1,0E0,2.9152107E-1,0E0,0E0,0E0,0E0,8.791529E-1,0E0,0E0,0E0,0E0,5.677272E-1,2.5113234E-1,0E0,0E0,1.2619972E-2,0E0,0E0,0E0,4.6117306E-2,0E0,0E0,0E0,0E0,0E0,0E0],"parents":[2147483647,0,0,1,1,3,3,4,4,5,5,6,6,7,7,9,9,11,11,14,14,15,15,16,16,17,17,18,18,19,19,20,20,22,22,25,25,26,26,27,27,28,28,30,30,33,33,34,34,36,36,38,38,43,43,48,48,49,49,52,52,56,56],"right_children":[2,4,-1,6,8,10,12,14,-1,16,-1,18,-1,-1,20,22,24,26,28,30,32,-1,34,-1,-1,36,38,40,42,-1,44,-1,-1,46,48,-1,50,-1,52,-1,-1,-1,-1,54,-1,-1,-1,-1,56,58,-1,-1,60,-1,-1,-1,62,-1,-1,-1,-1,-1,-1],"split_conditions":[5.3961787E0,8.881708E0,-9.4894685E-2,9.548034E-1,5.0110203E1,7.6839232E0,1.3708807E0,3.1216271E-2,-6.036969E-2,6.7837195E0,2.5527892E-1,1.9959692E1,4.6821114E-2,-5.3189654E-2,9.935857E-1,1.8651795E0,8.132263E-2,8.601028E-2,9.813102E-1,1.6570666E-1,1.937521E1,-8.077558E-2,1.3410306E-2,2.0006333E-1,-2.9384604E-2,1.1121461E-2,5.381282E-1,9.708788E-1,5.81898E0,2.0867665E-1,5.277364E-2,-5.6841373E-2,1.11560225E-1,2.0765227E-1,1.1072107E1,-1.2072965E-2,4.405676E0,5.965147E-2,9.935857E-1,-3.3447817E-2,8.199615E-2,-5.6299932E-2,-4.6868953E-3,2.0300977E-1,1.34763E-1,-3.207236E-2,9.6499585E-2,4.692905E-2,6.9113934E-1,5.8773613E0,-7.877953E-2,-1.2666571E-2,1.3155891E0,-5.8762502E-2,1.8316228E-2,7.880895E-3,6.901837E-2,-4.7742184E-2,6.6823447E-3,-2.3865692E-2,-7.318694E-2,-7.0069365E-2,-2.1659566E-2],"split_indices":[8,4,0,5,2,2,7,5,0,4,0,2,0,0,5,4,6,8,6,8,3,0,8,0,0,6,6,5,4,0,6,0,0,5,3,0,4,0,5,0,0,0,0,8,0,0,0,0,5,3,0,0,8,0,0,0,8,0,0,0,0,0,0],"split_type":[0,0,0,0,0,0,0,0,0,0,0,0,0,0,0,0,0,0,0,0,0,0,0,0,0,0,0,0,0,0,0,0,0,0,0,0,0,0,0,0,0,0,0,0,0,0,0,0,0,0,0,0,0,0,0,0,0,0,0,0,0,0,0],"sum_hessian":[1.1411564E2,8.269449E1,3.1421152E1,6.457072E1,1.8123768E1,1.9045912E1,4.5524807E1,1.6636131E1,1.487637E0,1.7797297E1,1.2486137E0,4.366641E1,1.8583993E0,1.2528968E0,1.5383234E1,1.4338871E1,3.4584267E0,3.6521564E1,7.144844E0,1.0744945E1,4.6382895E0,5.5606265E0,8.778244E0,1.4826874E0,1.9757392E0,2.8202127E1,8.319437E0,3.967341E0,3.177503E0,5.3106775E0,5.434267E0,3.0348074E0,1.603482E0,2.0515363E0,6.726708E0,1.3216726E0,2.6880455E1,1.7759906E0,6.5434465E0,1.8706878E0,2.096653E0,1.8030256E0,1.3744774E0,4.199182E0,1.2350847E0,1.0109292E0,1.0406071E0,1.0931532E0,5.6335545E0,2.2764053E0,2.460405E1,2.042373E0,4.501074E0,1.9156727E0,2.2835095E0,1.2961973E0,4.3373575E0,1.2696438E0,1.0067617E0,1.4095472E0,3.0915265E0,2.8383586E0,1.4989986E0],"tree_param":{"num_deleted":"0","num_feature":"9","num_nodes":"63","size_leaf_vector":"1"}},{"base_weights":[-2.7574202E-1,-2.4597863E-2,-9.439514E-2,-4.38133E-1,3.436307E-1,-7.930414E-2,-3.18331E-1,6.457509E-1,-2.7852747E-1,6.7194474E-1,-4.6978194E-1,7.788636E-1,-6.8129085E-2,-4.996497E-1,6.677733E-1,-2.6679639E-2,1.3725512E-1,2.3322982E-1,-6.075673E-1,-6.0817588E-2,9.053137E-1,2.576553E-1,-7.472341E-2,1.0384674E-1,-3.5788491E-3,-1.7148064E-2,1.331712E-2,-3.226742E-1,1.1168827E-1,-6.5597737E-1,2.5597021E-3,3.3049396E-1,6.0393405E-1,-5.7768453E-2,9.903758E-2,-4.685776E-2,-9.682758E-3,-7.094034E-1,-1.1887449E-2,-4.0133208E-1,9.577223E-1,-1.8249718E-2,-7.328738E-2,-7.078127E-2,5.1502455E-3,1.2635894E-1,1.6939846E0,-2.961707E-1,1.2780128E-1,2.130369E0,-1.9916322E-2,4.2878848E-2,-5.5380117E-2,3.0379996E-1,1.3644406E-1],"categories":[],"categories_nodes":[],"categories_segments":[],"categories_sizes":[],"default_left":[0,0,0,0,0,0,0,0,0,0,0,0,0,0,0,0,0,0,0,0,0,0,0,0,0,0,0,0,0,0,0,0,0,0,0,0,0,0,0,0,0,0,0,0,0,0,0,0,0,0,0,0,0,0,0],"id":13,"left_children":[1,3,-1,5,7,-1,9,11,13,15,17,19,-1,21,23,25,-1,27,29,-1,31,33,-1,-1,-1,-1,-1,35,-1,37,-1,-1,39,-1,-1,-1,-1,41,-1,43,45,-1,-1,-1,-1,47,49,51,-1,53,-1,-1,-1,-1,-1],"loss_changes":[1.793511E1,1.2150681E1,0E0,1.3444982E0,8.120824E0,0E0,4.7776146E0,5.607231E0,3.3694015E0,2.1696455E0,2.6982274E0,5.2134438E0,0E0,2.504731E0,8.6547005E-1,9.604828E-2,0E0,2.839956E0,7.017002E-1,0E0,1.5914848E1,2.8869395E0,0E0,0E0,0E0,0E0,0E0,8.229455E-2,0E0,5.1240253E-1,0E0,0E0,8.644828E0,0E0,0E0,0E0,0E0,9.766674E-2,0E0,9.733851E-1,1.04826355E1,0E0,0E0,0E0,0E0,4.898222E0,8.014158E0,1.6582341E0,0E0,1.1045799E0,0E0,0E0,0E0,0E0,0E0],"parents":[2147483647,0,0,1,1,3,3,4,4,6,6,7,7,8,8,9,9,10,10,11,11,13,13,14,14,15,15,17,17,18,18,20,20,21,21,27,27,29,29,32,32,37,37,39,39,40,40,45,45,46,46,47,47,49,49],"right_children":[2,4,-1,6,8,-1,10,12,14,16,18,20,-1,22,24,26,-1,28,30,-1,32,34,-1,-1,-1,-1,-1,36,-1,38,-1,-1,40,-1,-1,-1,-1,42,-1,44,46,-1,-1,-1,-1,48,50,52,-1,54,-1,-1,-1,-1,-1],"split_conditions":[5.3961787E0,6.278134E0,-9.439514E-2,1.8651795E0,9.935857E-1,-7.930414E-2,4.405676E0,4.823224E1,1.937521E1,3.243268E0,9.2029613E-1,2.8090734E-2,-6.8129085E-2,8.410152E0,2.7284332E1,9.456128E0,1.3725512E-1,1.0286358E1,4.8089808E-1,-6.0817588E-2,1.3644995E-1,1.57053385E1,-7.472341E-2,1.0384674E-1,-3.5788491E-3,-1.7148064E-2,1.331712E-2,5.88354E-2,1.1168827E-1,1.9959692E1,2.5597021E-3,3.3049396E-1,1.210822E-2,-5.7768453E-2,9.903758E-2,-4.685776E-2,-9.682758E-3,2.598618E-1,-1.1887449E-2,4.799315E-3,7.8750525E0,-1.8249718E-2,-7.328738E-2,-7.078127E-2,5.1502455E-3,1.4398015E-3,1.7068945E0,3.8588915E-8,1.2780128E-1,9.49907E0,-1.9916322E-2,4.2878848E-2,-5.5380117E-2,3.0379996E-1,1.3644406E-1],"split_indices":[8,4,0,4,5,0,4,1,3,4,5,5,0,4,3,1,0,1,8,0,2,1,0,0,0,0,0,5,0,2,0,0,6,0,0,0,0,2,0,6,4,0,0,0,0,8,8,8,0,4,0,0,0,0,0],"split_type":[0,0,0,0,0,0,0,0,0,0,0,0,0,0,0,0,0,0,0,0,0,0,0,0,0,0,0,0,0,0,0,0,0,0,0,0,0,0,0,0,0,0,0,0,0,0,0,0,0,0,0,0,0,0,0],"sum_hessian":[1.0601146E2,7.780538E1,2.8206072E1,3.6558697E1,4.124669E1,7.808056E0,2.8750639E1,2.77388E1,1.350789E1,3.3579116E0,2.5392727E1,2.5585459E1,2.1533396E0,1.1331949E1,2.175941E0,2.1629748E0,1.1949366E0,4.047709E0,2.1345018E1,1.819343E0,2.3766117E1,2.7819405E0,8.550009E0,1.1133319E0,1.062609E0,1.096739E0,1.0662359E0,2.8743207E0,1.1733881E0,1.9795479E1,1.5495399E0,1.5398202E0,2.2226297E1,1.3988116E0,1.3831289E0,1.0932741E0,1.7810465E0,1.7712778E1,2.0827003E0,5.7509537E0,1.6475344E1,1.1295768E0,1.6583202E1,3.0939095E0,2.657044E0,8.2882E0,8.187142E0,6.606994E0,1.6812061E0,6.5516376E0,1.6355052E0,1.5581329E0,5.048861E0,1.6408231E0,4.9108143E0],"tree_param":{"num_deleted":"0","num_feature":"9","num_nodes":"55","size_leaf_vector":"1"}},{"base_weights":[-2.8172526E-1,-5.6226876E-2,-9.3946986E-2,-3.279458E-1,5.1955044E-1,-4.2261098E-2,-4.7299123E-1,8.762407E-1,-1.8774945E-1,-8.174391E-2,3.4914076E-1,-5.299373E-1,5.2569967E-2,1.635949E0,-3.7681267E-2,-4.86078E-1,6.685985E-2,1.2313821E-1,1.4650783E-1,-9.839297E-2,-5.846938E-1,3.5983033E-2,2.1801475E-1,1.3423255E-1,-6.2816393E-1,-7.7447705E-3,-6.0831815E-1,1.103433E-1,-1.1404886E-1,-5.2273076E-2,5.164956E-2,-6.729403E-1,-3.7779868E-1,-6.978571E-2,-1.4856325E-2,-7.3548995E-2,-1.2260552E-2,1.2347618E-1,-4.6879947E-2,-2.1157669E-2,-6.979019E-2,-6.4184344E-1,7.4873924E-2,1.03171185E-1,-2.3284654E-1,-6.84275E-2,-1.4200916E-2,-6.613658E-2,1.7711374E-1,6.391969E-2,-2.9145477E-2],"categories":[],"categories_nodes":[],"categories_segments":[],"categories_sizes":[],"default_left":[0,0,0,0,0,0,0,0,0,0,0,0,0,0,0,0,0,0,0,0,0,0,0,0,0,0,0,0,0,0,0,0,0,0,0,0,0,0,0,0,0,0,0,0,0,0,0,0,0,0,0],"id":14,"left_children":[1,3,-1,5,7,9,11,13,15,-1,17,19,-1,21,23,25,-1,27,-1,29,31,-1,-1,-1,33,-1,35,-1,37,-1,-1,39,41,-1,-1,-1,-1,43,-1,-1,-1,45,-1,-1,47,-1,-1,-1,49,-1,-1],"loss_changes":[1.5574409E1,1.2612116E1,0E0,2.2442074E0,6.6946893E0,6.201302E0,2.3341131E0,1.2130977E1,2.7521954E0,0E0,3.2639751E0,7.622261E-1,0E0,5.823271E0,8.069605E0,3.3377254E-1,0E0,3.0203547E0,0E0,1.6029065E0,3.04142E-1,0E0,0E0,0E0,1.2668562E-1,0E0,2.6335883E-1,0E0,9.7886E-1,0E0,0E0,8.449364E-2,3.878803E0,0E0,0E0,0E0,0E0,2.6150234E0,0E0,0E0,0E0,1.10535145E-1,0E0,0E0,1.1863468E0,0E0,0E0,0E0,1.0305549E0,0E0,0E0],"parents":[2147483647,0,0,1,1,3,3,4,4,5,5,6,6,7,7,8,8,10,10,11,11,13,13,14,14,15,15,17,17,19,19,20,20,24,24,26,26,28,28,31,31,32,32,37,37,41,41,44,44,48,48],"right_children":[2,4,-1,6,8,10,12,14,16,-1,18,20,-1,22,24,26,-1,28,-1,30,32,-1,-1,-1,34,-1,36,-1,38,-1,-1,40,42,-1,-1,-1,-1,44,-1,-1,-1,46,-1,-1,48,-1,-1,-1,50,-1,-1],"split_conditions":[5.3961787E0,7.8750525E0,-9.3946986E-2,9.548034E-1,9.935857E-1,9.2209524E-1,2.9904034E1,3.645544E1,9.49907E0,-8.174391E-2,5.139998E-1,4.405676E0,5.2569967E-2,-4.1120472E-8,1.6570666E-1,3.0730378E-2,6.685985E-2,3.0036243E-3,1.4650783E-1,1.0286358E1,1.3410306E-2,3.5983033E-2,2.1801475E-1,1.3423255E-1,9.2918456E-1,-7.7447705E-3,8.601028E-2,1.103433E-1,7.296606E0,-5.2273076E-2,5.164956E-2,9.708788E-1,1.9737555E1,-6.978571E-2,-1.4856325E-2,-7.3548995E-2,-1.2260552E-2,7.593758E-1,-4.6879947E-2,-2.1157669E-2,-6.979019E-2,9.46932E-1,7.4873924E-2,1.03171185E-1,4.799315E-3,-6.84275E-2,-1.4200916E-2,-6.613658E-2,3.824287E-1,6.391969E-2,-2.9145477E-2],"split_indices":[8,4,0,5,5,1,1,0,4,0,6,4,0,8,8,8,0,6,0,1,8,0,0,0,5,0,8,0,4,0,0,5,1,0,0,0,0,5,0,0,0,6,0,0,6,0,0,0,8,0,0],"split_type":[0,0,0,0,0,0,0,0,0,0,0,0,0,0,0,0,0,0,0,0,0,0,0,0,0,0,0,0,0,0,0,0,0,0,0,0,0,0,0,0,0,0,0,0,0,0,0,0,0,0,0],"sum_hessian":[1.0436136E2,7.85255E1,2.5835861E1,5.364157E1,2.4883923E1,1.849829E1,3.5143284E1,1.6383099E1,8.500824E0,5.8412013E0,1.2657088E1,3.3691532E1,1.4517485E0,8.514931E0,7.868168E0,6.625174E0,1.8756495E0,1.1448793E1,1.2082944E0,4.108524E0,2.958301E1,3.0422397E0,5.4726915E0,1.9762472E0,5.8919206E0,1.9016885E0,4.7234855E0,1.5189221E0,9.929872E0,2.519607E0,1.5889167E0,1.9158714E1,1.0424294E1,4.7470274E0,1.1448934E0,3.3358314E0,1.3876543E0,6.3381004E0,3.5917714E0,1.4697379E0,1.7688978E1,8.793478E0,1.630817E0,1.2518362E0,5.086264E0,7.7652698E0,1.0282079E0,2.1870072E0,2.899257E0,1.2763875E0,1.6228696E0],"tree_param":{"num_deleted":"0","num_feature":"9","num_nodes":"51","size_leaf_vector":"1"}},{"base_weights":[-2.5291595E-1,-2.8159121E-2,-9.335974E-2,-3.2122988E-1,6.6754395E-1,-4.480846E-1,-1.4626223E-2,1.7018576E0,2.6967114E-1,-5.2489257E-1,9.704678E-4,-3.415971E-1,2.0257628E-1,2.9321208E-3,2.0519152E0,-2.85361E-1,6.371589E-1,-5.615706E-1,2.610418E-2,6.756151E-2,-4.467347E-1,-1.3248879E-2,-5.378555E-1,2.2882901E-1,6.5566696E-2,-5.4194905E-2,1.588253E-1,1.0184126E0,-6.790031E-2,-6.7108595E-1,-3.5950658E-1,-5.4366775E-2,-1.37324305E-2,-6.194065E-2,4.2264012E-1,-6.854313E-2,1.3188332E-2,-5.603352E-2,9.088229E-2,1.698603E-1,2.6302338E-1,-4.10839E-1,-7.761118E-2,-5.5143386E-1,2.5613147E-1,1.10075735E-1,-4.5549314E-2,-3.575631E-1,8.6560434E-1,-6.565128E-2,1.168703E-1,-6.322791E-2,-2.8621763E-1,-2.3229824E-2,8.0371395E-2,-4.7225035E-3,-4.980016E-2,3.4050755E-3,1.2609018E-1,6.863394E-2,-4.6423897E-2,7.7321804E-3,-4.3816872E-2],"categories":[],"categories_nodes":[],"categories_segments":[],"categories_sizes":[],"default_left":[0,0,0,0,0,0,0,0,0,0,0,0,0,0,0,0,0,0,0,0,0,0,0,0,0,0,0,0,0,0,0,0,0,0,0,0,0,0,0,0,0,0,0,0,0,0,0,0,0,0,0,0,0,0,0,0,0,0,0,0,0,0,0],"id":15,"left_children":[1,3,-1,5,7,9,11,13,15,17,19,21,-1,-1,23,25,27,29,-1,-1,31,33,35,-1,-1,-1,37,39,-1,41,43,-1,-1,-1,45,-1,-1,-1,-1,-1,47,49,-1,51,53,-1,-1,55,57,-1,59,-1,61,-1,-1,-1,-1,-1,-1,-1,-1,-1,-1],"loss_changes":[1.5168722E1,1.5648558E1,0E0,2.0912595E0,8.908066E0,1.3152328E0,1.1912524E1,3.5318317E0,3.7770736E0,1.084959E0,2.2849307E0,9.8213685E-1,0E0,0E0,1.692295E-1,9.650643E-1,6.168229E0,4.5399475E-1,0E0,0E0,6.1763167E-2,2.050093E0,1.037566E0,0E0,0E0,0E0,2.4494612E0,4.1070623E0,0E0,2.065115E-1,1.7005433E0,0E0,0E0,0E0,3.199814E0,0E0,0E0,0E0,0E0,0E0,2.3223288E0,1.0686864E0,0E0,4.1541338E-2,1.2081695E0,0E0,0E0,1.2289283E-1,9.5082855E-1,0E0,1.4038682E0,0E0,2.687301E-1,0E0,0E0,0E0,0E0,0E0,0E0,0E0,0E0,0E0,0E0],"parents":[2147483647,0,0,1,1,3,3,4,4,5,5,6,6,7,7,8,8,9,9,10,10,11,11,14,14,15,15,16,16,17,17,20,20,21,21,22,22,26,26,27,27,29,29,30,30,34,34,40,40,41,41,43,43,44,44,47,47,48,48,50,50,52,52],"right_children":[2,4,-1,6,8,10,12,14,16,18,20,22,-1,-1,24,26,28,30,-1,-1,32,34,36,-1,-1,-1,38,40,-1,42,44,-1,-1,-1,46,-1,-1,-1,-1,-1,48,50,-1,52,54,-1,-1,56,58,-1,60,-1,62,-1,-1,-1,-1,-1,-1,-1,-1,-1,-1],"split_conditions":[5.3961787E0,7.8750525E0,-9.335974E-2,6.278134E0,8.977144E-1,1.5120852E1,8.601028E-2,1.6346207E-1,5.581618E0,1.3708807E0,2.0300977E-1,7.296606E0,2.0257628E-1,2.9321208E-3,2.6236546E1,2.6629314E1,5.2131527E1,2.1284074E-2,2.610418E-2,6.756151E-2,2.0108791E1,1.646338E1,2.5409721E1,2.2882901E-1,6.5566696E-2,-5.4194905E-2,9.0391606E-1,9.935857E-1,-6.790031E-2,9.708788E-1,1.646338E1,-5.4366775E-2,-1.37324305E-2,-6.194065E-2,2.7833147E1,-6.854313E-2,1.3188332E-2,-5.603352E-2,9.088229E-2,1.698603E-1,1.8022837E1,7.213345E-2,-7.761118E-2,7.460462E-1,2.6611957E-1,1.10075735E-1,-4.5549314E-2,6.196884E-1,-4.1120472E-8,-6.565128E-2,1.2963408E1,-6.322791E-2,4.405676E0,-2.3229824E-2,8.0371395E-2,-4.7225035E-3,-4.980016E-2,3.4050755E-3,1.2609018E-1,6.863394E-2,-4.6423897E-2,7.7321804E-3,-4.3816872E-2],"split_indices":[8,4,0,4,5,2,8,5,2,7,8,4,0,0,3,0,0,8,0,0,0,0,0,0,0,0,5,5,0,5,0,0,0,0,2,0,0,0,0,0,3,2,0,2,2,0,0,8,8,0,3,0,4,0,0,0,0,0,0,0,0,0,0],"split_type":[0,0,0,0,0,0,0,0,0,0,0,0,0,0,0,0,0,0,0,0,0,0,0,0,0,0,0,0,0,0,0,0,0,0,0,0,0,0,0,0,0,0,0,0,0,0,0,0,0,0,0,0,0,0,0,0,0,0,0,0,0,0,0],"sum_hessian":[9.8321724E1,7.4698204E1,2.362352E1,5.2936516E1,2.1761686E1,3.7117863E1,1.5818655E1,5.135084E0,1.6626602E1,3.1552183E1,5.5656796E0,1.4351431E1,1.4672241E0,1.0763178E0,4.0587664E0,6.7122655E0,9.914336E0,3.0418102E1,1.1340797E0,2.0170836E0,3.5485957E0,5.7683144E0,8.583117E0,2.9247432E0,1.1340234E0,4.1150675E0,2.597198E0,7.862906E0,2.0514297E0,1.8221304E1,1.2196799E1,2.1255786E0,1.4230171E0,2.236778E0,3.531536E0,7.0141335E0,1.5689833E0,1.4549521E0,1.1422459E0,3.480365E0,4.382541E0,6.6513906E0,1.1569913E1,9.377592E0,2.8192077E0,1.8496605E0,1.6818756E0,2.3593285E0,2.0232127E0,4.3719563E0,2.2794342E0,6.1261573E0,3.2514343E0,1.7944121E0,1.0247954E0,1.1513554E0,1.207973E0,1.0018487E0,1.021364E0,1.059789E0,1.2196451E0,1.1031982E0,2.1482363E0],"tree_param":{"num_deleted":"0","num_feature":"9","num_nodes":"63","size_leaf_vector":"1"}},{"base_weights":[-2.2431628E-1,-7.752518E-2,-9.40037E-2,-4.6771485E-1,3.2114965E-1,-7.3568314E-1,-1.9621456E-1,-7.6501414E-2,4.538563E-1,-8.6480565E-2,-4.6939436E-1,1.8329608E-1,-3.7724718E-1,2.0562926E-1,2.7030438E-1,-1.7852837E-1,-6.0940336E-2,6.149963E-1,-4.9183656E-2,5.18456E-2,-4.8077667E-1,-2.2945376E-1,6.093179E-1,-3.1033128E-2,1.1245608E-2,-3.373784E-1,1.6506296E-1,-5.7782924E-1,5.2462197E-3,3.1500045E-2,-7.032179E-2,1.5092478E0,-2.0490602E-1,-4.0217906E-2,-9.479238E-3,-6.214009E-1,-2.1977028E-2,-3.7912664E-1,1.4804098E-1,3.1024756E-2,2.066107E0,-4.5076168E-1,9.886986E-2,-1.09541485E-4,-7.106942E-2,-7.1871504E-2,-4.6507336E-2,5.3865295E-2,-4.9064282E-2,2.8149006E-1,1.0642375E-1,2.3365055E-1,-7.035789E-1,3.228207E-1,-5.985282E-2,4.6957396E-2,-1.01492135E-2,-7.793466E-2,-1.6294703E-2,1.3293236E-1,-4.836384E-2],"categories":[],"categories_nodes":[],"categories_segments":[],"categories_sizes":[],"default_left":[0,0,0,0,0,0,0,0,0,0,0,0,0,0,0,0,0,0,0,0,0,0,0,0,0,0,0,0,0,0,0,0,0,0,0,0,0,0,0,0,0,0,0,0,0,0,0,0,0,0,0,0,0,0,0,0,0,0,0,0,0],"id":16,"left_children":[1,3,-1,5,7,9,11,-1,13,-1,15,17,19,-1,21,23,-1,25,-1,-1,27,29,31,-1,-1,33,-1,35,-1,37,-1,39,41,-1,-1,43,-1,45,-1,47,49,51,-1,-1,-1,-1,53,-1,-1,-1,-1,55,57,59,-1,-1,-1,-1,-1,-1,-1],"loss_changes":[9.751772E0,1.2390847E1,0E0,2.7784739E0,6.0427713E0,2.767563E-1,1.5338721E0,0E0,9.9855995E0,0E0,2.4431276E-1,2.5053816E0,1.618083E0,0E0,5.7828975E0,1.9720066E-1,0E0,5.5423794E0,0E0,0E0,7.419362E-1,1.7762898E0,1.5051179E1,0E0,0E0,1.632148E-2,0E0,4.6226263E-2,0E0,6.574088E0,0E0,7.900791E0,3.8036108E0,0E0,0E0,5.474746E-1,0E0,9.4596016E-1,0E0,1.234265E0,2.2654552E0,1.9250302E0,0E0,0E0,0E0,0E0,1.3042389E0,0E0,0E0,0E0,0E0,3.2403818E-1,1.875906E-1,3.8204417E0,0E0,0E0,0E0,0E0,0E0,0E0,0E0],"parents":[2147483647,0,0,1,1,3,3,4,4,5,5,6,6,8,8,10,10,11,11,12,12,14,14,15,15,17,17,20,20,21,21,22,22,25,25,27,27,29,29,31,31,32,32,35,35,37,37,39,39,40,40,41,41,46,46,51,51,52,52,53,53],"right_children":[2,4,-1,6,8,10,12,-1,14,-1,16,18,20,-1,22,24,-1,26,-1,-1,28,30,32,-1,-1,34,-1,36,-1,38,-1,40,42,-1,-1,44,-1,46,-1,48,50,52,-1,-1,-1,-1,54,-1,-1,-1,-1,56,58,60,-1,-1,-1,-1,-1,-1,-1],"split_conditions":[5.0514187E1,6.278134E0,-9.40037E-2,1.423866E1,2.8090734E-2,8.767846E0,9.548034E-1,-7.6501414E-2,1.3644995E-1,-8.6480565E-2,4.405676E0,1.2963408E1,4.405676E0,2.0562926E-1,2.1145124E0,3.243268E0,-6.0940336E-2,4.550675E-1,-4.9183656E-2,5.18456E-2,2.3969322E1,1.836684E0,9.935857E-1,-3.1033128E-2,1.1245608E-2,2.0765227E-1,1.6506296E-1,5.81898E0,5.2462197E-3,5.0594145E-1,-7.032179E-2,2.2658194E1,1.937521E1,-4.0217906E-2,-9.479238E-3,9.8609215E-1,-2.1977028E-2,4.799315E-3,1.4804098E-1,2.0749378E1,9.49907E0,8.410152E0,9.886986E-2,-1.09541485E-4,-7.106942E-2,-7.1871504E-2,2.4675919E-2,5.3865295E-2,-4.9064282E-2,2.8149006E-1,1.0642375E-1,2.4729977E1,8.9229673E-1,9.7843075E-1,-5.985282E-2,4.6957396E-2,-1.01492135E-2,-7.793466E-2,-1.6294703E-2,1.3293236E-1,-4.836384E-2],"split_indices":[0,4,0,0,5,0,5,0,2,0,4,3,4,0,2,4,0,5,0,0,0,2,5,0,0,5,0,4,0,2,0,0,3,0,0,5,0,6,0,2,4,4,0,0,0,0,6,0,0,0,0,2,6,5,0,0,0,0,0,0,0],"split_type":[0,0,0,0,0,0,0,0,0,0,0,0,0,0,0,0,0,0,0,0,0,0,0,0,0,0,0,0,0,0,0,0,0,0,0,0,0,0,0,0,0,0,0,0,0,0,0,0,0,0,0,0,0,0,0,0,0,0,0,0,0],"sum_hessian":[9.2513374E1,7.7688194E1,1.4825182E1,3.9174393E1,3.85138E1,1.8854994E1,2.03194E1,3.6744921E0,3.483931E1,1.1184193E1,7.6708007E0,6.5583005E0,1.37611E1,2.5319774E0,3.230733E1,3.2318387E0,4.438962E0,4.0546856E0,2.5036151E0,1.0105283E0,1.2750571E1,1.3188551E1,1.911878E1,2.178561E0,1.0532777E0,2.4634824E0,1.5912032E0,1.0716487E1,2.0340843E0,9.106252E0,4.082299E0,8.675969E0,1.0442811E1,1.4249588E0,1.0385234E0,8.898206E0,1.8182815E0,7.670686E0,1.4355657E0,2.6628795E0,6.0130897E0,9.175266E0,1.2675453E0,1.2470971E0,7.6511087E0,3.2212105E0,4.449476E0,1.3330983E0,1.3297812E0,2.405546E0,3.6075437E0,2.4954743E0,6.6797915E0,2.9146435E0,1.534832E0,1.22912E0,1.2663544E0,5.471441E0,1.2083508E0,1.008116E0,1.9065275E0],"tree_param":{"num_deleted":"0","num_feature":"9","num_nodes":"61","size_leaf_vector":"1"}},{"base_weights":[-2.3227876E-1,-1.5656905E-2,-8.9541656E-1,-2.0352846E-1,7.225701E-1,-2.9490098E-2,-9.253339E-2,-1.6967427E-2,-5.4340774E-1,9.112347E-1,-5.5518057E-2,-3.1821096E-1,5.9566253E-1,5.7568112E-3,-5.856969E-1,-2.3867337E-2,1.0410389E0,-5.186451E-1,8.469715E-2,1.976199E0,6.473129E-2,-6.3192934E-1,-5.1454506E-3,1.6138989E-1,1.3429747E0,-5.654092E-1,-1.8382056E-1,1.0342463E-1,-2.566194E-1,6.5130293E-3,2.735354E-1,-2.2078653E-1,1.1978664E-1,-6.9809335E-1,1.9227652E-2,1.0430785E-1,-6.376683E-2,1.5053662E0,1.4293767E-2,-6.038329E-2,-1.3038561E-2,4.9781334E-4,-2.7106239E-2,-5.0803035E-1,3.1674955E-2,-4.5567453E-1,4.1026946E-2,-1.2316927E-2,-7.3123294E-1,1.6719143E-1,2.3897542E-2,-6.91547E-2,-1.7656385E-3,8.329684E-3,-5.840522E-1,-7.544986E-2,-2.2030767E-2,-7.058225E-2,-9.556793E-3],"categories":[],"categories_nodes":[],"categories_segments":[],"categories_sizes":[],"default_left":[0,0,0,0,0,0,0,0,0,0,0,0,0,0,0,0,0,0,0,0,0,0,0,0,0,0,0,0,0,0,0,0,0,0,0,0,0,0,0,0,0,0,0,0,0,0,0,0,0,0,0,0,0,0,0,0,0,0,0],"id":17,"left_children":[1,3,5,7,9,-1,-1,11,13,15,-1,17,19,-1,21,-1,23,25,27,29,31,33,-1,35,37,39,41,-1,43,-1,-1,45,-1,47,-1,-1,-1,49,-1,-1,-1,-1,-1,51,-1,53,-1,-1,55,-1,-1,-1,-1,-1,57,-1,-1,-1,-1],"loss_changes":[1.3265933E1,9.952763E0,1.3575363E-1,3.6138532E0,4.016423E0,0E0,0E0,7.1880984E0,5.475211E-1,2.198964E0,0E0,2.1495333E0,9.289717E0,0E0,4.3620777E-1,0E0,2.9514513E0,1.7089224E-1,3.3512635E0,4.9503794E0,3.6012428E0,1.0818467E0,0E0,3.613378E0,1.4887838E0,1.7064857E-1,6.118495E-2,0E0,1.2860274E0,0E0,0E0,1.5331924E0,0E0,2.2052813E-1,0E0,0E0,0E0,1.2027111E0,0E0,0E0,0E0,0E0,0E0,5.106374E-1,0E0,5.39392E-1,0E0,0E0,1.4588356E-2,0E0,0E0,0E0,0E0,0E0,2.806946E-1,0E0,0E0,0E0,0E0],"parents":[2147483647,0,0,1,1,2,2,3,3,4,4,7,7,8,8,9,9,11,11,12,12,14,14,16,16,17,17,18,18,19,19,20,20,21,21,23,23,24,24,25,25,26,26,28,28,31,31,33,33,37,37,43,43,45,45,48,48,54,54],"right_children":[2,4,6,8,10,-1,-1,12,14,16,-1,18,20,-1,22,-1,24,26,28,30,32,34,-1,36,38,40,42,-1,44,-1,-1,46,-1,48,-1,-1,-1,50,-1,-1,-1,-1,-1,52,-1,54,-1,-1,56,-1,-1,-1,-1,-1,58,-1,-1,-1,-1],"split_conditions":[3.647843E0,8.881708E0,5.6219687E0,9.935857E-1,3.6952675E1,-2.9490098E-2,-9.253339E-2,2.909827E0,8.132263E-2,1.8022837E1,-5.5518057E-2,6.278134E0,9.6342397E-1,5.7568112E-3,2.5811852E1,-2.3867337E-2,4.8093143E-1,7.460462E-1,1.4665224E-1,4.0083833E0,9.8609215E-1,2.4970807E-1,-5.1454506E-3,4.7555584E-1,9.813102E-1,5.81898E0,9.2918456E-1,1.0342463E-1,5.0594145E-1,6.5130293E-3,2.735354E-1,1.788309E1,1.1978664E-1,4.405676E0,1.9227652E-2,1.0430785E-1,-6.376683E-2,3.455294E1,1.4293767E-2,-6.038329E-2,-1.3038561E-2,4.9781334E-4,-2.7106239E-2,-4.1120472E-8,3.1674955E-2,5.81898E0,4.1026946E-2,-1.2316927E-2,8.601028E-2,1.6719143E-1,2.3897542E-2,-6.91547E-2,-1.7656385E-3,8.329684E-3,1.3812318E1,-7.544986E-2,-2.2030767E-2,-7.058225E-2,-9.556793E-3],"split_indices":[8,4,8,5,3,0,0,2,6,3,0,4,5,0,2,0,5,2,2,4,5,8,0,5,6,4,5,0,2,0,0,2,0,4,0,0,0,2,0,0,0,0,0,8,0,4,0,0,8,0,0,0,0,0,3,0,0,0,0],"split_type":[0,0,0,0,0,0,0,0,0,0,0,0,0,0,0,0,0,0,0,0,0,0,0,0,0,0,0,0,0,0,0,0,0,0,0,0,0,0,0,0,0,0,0,0,0,0,0,0,0,0,0,0,0,0,0,0,0,0,0],"sum_hessian":[9.1446495E1,6.970133E1,2.1745161E1,5.6138847E1,1.3562487E1,1.5471507E0,2.0198011E1,3.6922092E1,1.9216755E1,1.2067518E1,1.4949683E0,2.5073492E1,1.1848601E1,1.2395833E0,1.797717E1,1.1389633E0,1.0928555E1,1.655209E1,8.5214E0,2.5349758E0,9.313625E0,1.6377075E1,1.6000968E0,3.1847463E0,7.7438083E0,1.3919339E1,2.6327515E0,1.7163405E0,6.8050604E0,1.0293986E0,1.5055772E0,8.082276E0,1.2313492E0,1.53017235E1,1.0753514E0,1.3689017E0,1.8158447E0,6.5966964E0,1.1471117E0,1.243313E1,1.4862086E0,1.1300865E0,1.5026649E0,4.8099484E0,1.9951118E0,6.092484E0,1.9897918E0,1.0910065E0,1.4210716E1,5.546972E0,1.0497247E0,3.2015588E0,1.6083896E0,1.2395612E0,4.852923E0,1.3135829E1,1.0748874E0,3.5284271E0,1.324496E0],"tree_param":{"num_deleted":"0","num_feature":"9","num_nodes":"59","size_leaf_vector":"1"}},{"base_weights":[-2.3798355E-1,-1.1933432E-1,-9.274756E-2,-6.0309166E-1,1.4036196E-1,-8.705311E-2,-4.3690756E-1,4.372185E-1,-1.648753E-1,1.0160362E-1,-5.618473E-1,-6.955232E-2,5.9951127E-1,-3.415802E-1,1.007772E-1,-2.4734762E-2,3.4288812E-2,-3.006395E-1,-6.4819925E-2,1.974646E-1,1.0983614E0,-4.9034756E-1,6.2499302E-3,-4.5575148E-1,1.872009E-2,1.404516E0,-1.45975E-1,1.610705E-1,2.105388E-1,-2.0968978E-1,-6.3058853E-1,7.4996546E-2,-2.5744694E-1,-5.236724E-2,-1.2864159E-2,-1.0051179E-2,2.4144645E-1,-6.9466546E-2,6.0620137E-2,-5.1545866E-2,1.08245604E-1,-5.290198E-2,4.11311E-2,-6.0061635E-3,-7.414531E-1,-5.0043964E-1,3.737099E-2,7.720915E-1,-3.5193357E-1,-1.8547276E-2,-7.923163E-2,-1.327488E-2,-6.8205595E-2,1.37435E-1,-1.3946681E-2,-5.806903E-1,1.498905E-2,-1.7384361E-2,-7.06325E-2],"categories":[],"categories_nodes":[],"categories_segments":[],"categories_sizes":[],"default_left":[0,0,0,0,0,0,0,0,0,0,0,0,0,0,0,0,0,0,0,0,0,0,0,0,0,0,0,0,0,0,0,0,0,0,0,0,0,0,0,0,0,0,0,0,0,0,0,0,0,0,0,0,0,0,0,0,0,0,0],"id":18,"left_children":[1,3,-1,5,7,-1,9,11,13,15,17,-1,19,21,-1,-1,-1,23,-1,25,27,29,31,33,-1,35,37,-1,39,41,43,-1,45,-1,-1,-1,-1,-1,47,-1,-1,-1,-1,-1,49,51,-1,53,55,-1,-1,-1,-1,-1,-1,57,-1,-1,-1],"loss_changes":[7.3189707E0,9.96324E0,0E0,8.488054E-1,4.7817616E0,0E0,1.3397741E0,5.3113832E0,5.8048368E0,4.5839646E-1,1.5761518E-1,0E0,4.5613594E0,1.2267735E0,0E0,0E0,0E0,5.2024287E-1,0E0,6.1792517E0,4.397456E0,5.202236E-1,1.776095E0,3.5994887E-2,0E0,5.237896E0,1.4165684E0,0E0,3.698107E0,1.6099701E0,6.230955E-1,0E0,1.2151046E0,0E0,0E0,0E0,0E0,0E0,3.1271477E0,0E0,0E0,0E0,0E0,0E0,1.0047817E-1,2.612188E-1,0E0,2.3237853E0,8.727626E-1,0E0,0E0,0E0,0E0,0E0,0E0,1.2800443E-1,0E0,0E0,0E0],"parents":[2147483647,0,0,1,1,3,3,4,4,6,6,7,7,8,8,9,9,10,10,12,12,13,13,17,17,19,19,20,20,21,21,22,22,23,23,25,25,26,26,28,28,29,29,30,30,32,32,38,38,44,44,45,45,47,47,48,48,55,55],"right_children":[2,4,-1,6,8,-1,10,12,14,16,18,-1,20,22,-1,-1,-1,24,-1,26,28,30,32,34,-1,36,38,-1,40,42,44,-1,46,-1,-1,-1,-1,-1,48,-1,-1,-1,-1,-1,50,52,-1,54,56,-1,-1,-1,-1,-1,-1,58,-1,-1,-1],"split_conditions":[5.0514187E1,1.764012E1,-9.274756E-2,1.09018E0,9.7843075E-1,-8.705311E-2,9.2029613E-1,3.470419E-2,1.937521E1,3.5137043E0,4.405676E0,-6.955232E-2,7.8750525E0,1.9959692E1,1.007772E-1,-2.4734762E-2,3.4288812E-2,3.243268E0,-6.4819925E-2,1.2963408E1,3.645544E1,1.2618071E1,2.4729977E1,1.0286358E1,1.872009E-2,4.0083833E0,5.81898E0,1.610705E-1,1.8827545E1,6.7971534E-1,9.935857E-1,7.4996546E-2,2.9904034E1,-5.236724E-2,-1.2864159E-2,-1.0051179E-2,2.4144645E-1,-6.9466546E-2,7.296606E0,-5.1545866E-2,1.08245604E-1,-5.290198E-2,4.11311E-2,-6.0061635E-3,1.3812318E1,2.9569384E1,3.737099E-2,3.0775896E1,2.2658194E1,-1.8547276E-2,-7.923163E-2,-1.327488E-2,-6.8205595E-2,1.37435E-1,-1.3946681E-2,2.0947977E1,1.498905E-2,-1.7384361E-2,-7.06325E-2],"split_indices":[0,0,0,1,5,0,5,5,3,1,4,0,4,2,0,0,0,4,0,3,0,2,2,1,0,4,4,0,1,2,5,0,1,0,0,0,0,0,4,0,0,0,0,0,3,0,0,0,0,0,0,0,0,0,0,1,0,0,0],"split_type":[0,0,0,0,0,0,0,0,0,0,0,0,0,0,0,0,0,0,0,0,0,0,0,0,0,0,0,0,0,0,0,0,0,0,0,0,0,0,0,0,0,0,0,0,0,0,0,0,0,0,0,0,0,0,0,0,0,0,0],"sum_hessian":[8.981848E1,7.763241E1,1.2186072E1,2.6655937E1,5.0976475E1,8.591428E0,1.8064508E1,2.5623812E1,2.5352661E1,3.4370465E0,1.4627461E1,2.7994077E0,2.2824404E1,2.2648495E1,2.7041664E0,1.3947698E0,2.0422766E0,4.747673E0,9.879789E0,1.3411383E1,9.413021E0,1.5576623E1,7.071872E0,3.6522079E0,1.0954652E0,2.286323E0,1.1125059E1,5.4523606E0,3.9606607E0,6.0214286E0,9.555195E0,1.3684188E0,5.7034535E0,2.5266654E0,1.1255422E0,1.2797359E0,1.0065873E0,2.3968587E0,8.728201E0,2.3842492E0,1.5764115E0,4.07441E0,1.9470187E0,1.8055094E0,7.7496853E0,4.2675657E0,1.4358875E0,2.883667E0,5.844534E0,1.0389982E0,6.710687E0,1.9832706E0,2.2842953E0,1.430714E0,1.452953E0,3.9065652E0,1.9379687E0,1.4841427E0,2.4224224E0],"tree_param":{"num_deleted":"0","num_feature":"9","num_nodes":"59","size_leaf_vector":"1"}},{"base_weights":[-2.717324E-1,-1.1077245E-1,-9.117436E-2,-2.8456023E-1,2.3893908E-1,-7.320797E-2,-2.1064639E-1,5.11668E-1,-2.796228E-1,2.416116E-1,-3.625534E-1,9.9583817E-1,-3.0226849E-2,-5.499186E-1,6.2579505E-2,-1.1668918E-1,1.9912706E-1,-4.20953E-1,5.817482E-2,2.5693277E-1,1.5037121E-1,7.76172E-2,-3.5731396E-1,-6.176353E-1,-1.086468E-2,-3.199798E-1,6.971096E-2,1.7952375E-1,-4.8056555E-1,-3.548819E-1,1.09471515E-1,-4.6687198E-1,1.3805601E-2,-7.317519E-2,-2.0240845E-2,9.180144E-3,-4.1710493E-1,-1.783333E-2,5.2209485E-2,-5.519763E-1,-9.433453E-2,1.38572445E-2,-6.1579317E-2,-2.019006E-1,-6.38526E-2,1.7345682E-3,-5.5465944E-2,-6.148855E-1,-2.8723952E-1,4.224073E-2,-3.5732585E-1,-5.7115298E-2,3.4108993E-2,-6.5502E-2,-3.3264902E-1,2.6854165E-2,-5.5257894E-2,-5.808988E-2,1.1598284E-2,3.988204E-2,-6.902038E-2,2.0799235E-2,-1.1540307E-2],"categories":[],"categories_nodes":[],"categories_segments":[],"categories_sizes":[],"default_left":[0,0,0,0,0,0,0,0,0,0,0,0,0,0,0,0,0,0,0,0,0,0,0,0,0,0,0,0,0,0,0,0,0,0,0,0,0,0,0,0,0,0,0,0,0,0,0,0,0,0,0,0,0,0,0,0,0,0,0,0,0,0,0],"id":19,"left_children":[1,3,-1,5,7,-1,9,11,13,15,17,19,21,23,-1,25,-1,27,-1,29,-1,-1,31,33,-1,35,-1,37,39,41,-1,43,-1,-1,-1,-1,45,-1,-1,47,49,-1,-1,51,-1,-1,-1,53,55,-1,57,-1,-1,-1,59,61,-1,-1,-1,-1,-1,-1,-1],"loss_changes":[9.475103E0,4.6513977E0,0E0,1.5273314E0,3.7606895E0,0E0,3.181468E0,4.5209475E0,2.6600003E0,7.7069764E0,2.125986E0,3.017046E0,2.663682E0,1.6655874E-1,0E0,2.0165832E0,0E0,1.2569499E0,0E0,2.900279E0,0E0,0E0,4.509412E-1,1.630063E-1,0E0,4.126222E-1,0E0,5.4443234E-1,7.7598524E-1,5.471926E-1,0E0,1.4670181E-1,0E0,0E0,0E0,0E0,4.72988E-1,0E0,0E0,2.419343E-1,9.5150065E-1,0E0,0E0,9.656892E-1,0E0,0E0,0E0,2.1972656E-3,5.733985E-1,0E0,5.378159E-1,0E0,0E0,0E0,1.4393418E0,1.2766142E-1,0E0,0E0,0E0,0E0,0E0,0E0,0E0],"parents":[2147483647,0,0,1,1,3,3,4,4,6,6,7,7,8,8,9,9,10,10,11,11,12,12,13,13,15,15,17,17,19,19,22,22,23,23,25,25,27,27,28,28,29,29,31,31,36,36,39,39,40,40,43,43,47,47,48,48,50,50,54,54,55,55],"right_children":[2,4,-1,6,8,-1,10,12,14,16,18,20,22,24,-1,26,-1,28,-1,30,-1,-1,32,34,-1,36,-1,38,40,42,-1,44,-1,-1,-1,-1,46,-1,-1,48,50,-1,-1,52,-1,-1,-1,54,56,-1,58,-1,-1,-1,60,62,-1,-1,-1,-1,-1,-1,-1],"split_conditions":[5.3961787E0,7.8750525E0,-9.117436E-2,1.8651795E0,9.935857E-1,-7.320797E-2,9.2029613E-1,1.6570666E-1,1.937521E1,8.4890895E-2,1.3708807E0,-4.1120472E-8,1.0068501E1,6.901837E-2,6.2579505E-2,1.6570666E-1,1.9912706E-1,4.405676E0,5.817482E-2,3.1140712E-1,1.5037121E-1,7.76172E-2,9.2918456E-1,4.8986802E-1,-1.086468E-2,3.475161E-1,6.971096E-2,3.243268E0,1.48559265E1,3.008461E-1,1.09471515E-1,8.977144E-1,1.3805601E-2,-7.317519E-2,-2.0240845E-2,9.180144E-3,1.2963408E1,-1.783333E-2,5.2209485E-2,1.788309E1,8.48544E-1,1.38572445E-2,-6.1579317E-2,2.0300977E-1,-6.38526E-2,1.7345682E-3,-5.5465944E-2,6.278134E0,6.7837195E0,4.224073E-2,-4.1120472E-8,-5.7115298E-2,3.4108993E-2,-6.5502E-2,1.6999617E1,2.287603E1,-5.5257894E-2,-5.808988E-2,1.1598284E-2,3.988204E-2,-6.902038E-2,2.0799235E-2,-1.1540307E-2],"split_indices":[8,4,0,4,5,0,5,8,3,6,7,8,4,8,0,8,0,4,0,2,0,0,5,6,0,5,0,4,3,2,0,5,0,0,0,0,3,0,0,2,6,0,0,8,0,0,0,4,4,0,8,0,0,0,2,2,0,0,0,0,0,0,0],"split_type":[0,0,0,0,0,0,0,0,0,0,0,0,0,0,0,0,0,0,0,0,0,0,0,0,0,0,0,0,0,0,0,0,0,0,0,0,0,0,0,0,0,0,0,0,0,0,0,0,0,0,0,0,0,0,0,0,0,0,0,0,0,0,0],"sum_hessian":[9.195725E1,7.441523E1,1.754202E1,4.983582E1,2.4579414E1,5.8020673E0,4.4033752E1,1.6116503E1,8.462911E0,1.092306E1,3.311069E1,8.069183E0,8.04732E0,6.819662E0,1.6432484E0,9.84108E0,1.0819802E0,3.1704187E1,1.406504E0,3.900397E0,4.1687865E0,1.9259963E0,6.1213236E0,5.565864E0,1.2537979E0,8.359617E0,1.4814627E0,2.68154E0,2.9022646E1,2.587329E0,1.3130682E0,5.0598054E0,1.0615184E0,3.7680092E0,1.797855E0,1.6059E0,6.753717E0,1.5459914E0,1.1355486E0,2.413176E1,4.8908873E0,1.0570499E0,1.530279E0,2.8447511E0,2.215054E0,1.8342718E0,4.919445E0,1.8429697E1,5.702063E0,1.4451674E0,3.44572E0,1.6623977E0,1.1823534E0,1.4978857E1,3.450839E0,3.0227256E0,2.6793375E0,2.1858795E0,1.2598404E0,1.0951076E0,2.3557315E0,1.1263903E0,1.8963354E0],"tree_param":{"num_deleted":"0","num_feature":"9","num_nodes":"63","size_leaf_vector":"1"}},{"base_weights":[-1.8723322E-1,6.461672E-2,-7.4216926E-1,3.055608E-1,-3.9012086E-1,-3.8066792E-1,-9.0743415E-2,-7.823744E-2,4.8941764E-1,-4.8398745E-1,5.0994128E-2,3.0567378E-2,-5.38076E-1,5.937583E-1,-6.919052E-2,-5.765916E-1,8.074242E-3,-6.744697E-2,6.145229E-3,3.143973E-1,1.6910022E0,-6.471992E-1,-4.9330755E-3,4.982873E-2,-5.3117067E-2,1.3792197E0,1.2499467E-1,5.7525367E-2,2.077779E-1,-3.241155E-1,-7.525566E-2,1.3630413E-3,1.9041912E-1,-4.1987047E-2,1.0047857E0,-5.6849223E-2,2.3406228E-2,1.3256493E-1,-6.8762414E-2,-2.3930948E-2,1.8215176E-1,-1.4071766E-1,1.2256291E0,1.982296E-2,-4.156437E-2,-2.5089497E-2,1.9356048E-1],"categories":[],"categories_nodes":[],"categories_segments":[],"categories_sizes":[],"default_left":[0,0,0,0,0,0,0,0,0,0,0,0,0,0,0,0,0,0,0,0,0,0,0,0,0,0,0,0,0,0,0,0,0,0,0,0,0,0,0,0,0,0,0,0,0,0,0],"id":20,"left_children":[1,3,5,7,9,11,-1,-1,13,15,-1,-1,17,19,-1,21,23,-1,-1,25,27,29,-1,-1,-1,31,33,-1,-1,35,-1,-1,-1,37,39,-1,-1,41,-1,-1,-1,43,45,-1,-1,-1,-1],"loss_changes":[1.1550142E1,6.422362E0,1.1942158E0,8.016743E0,1.9672468E0,1.2240796E0,0E0,0E0,4.5107527E0,8.683133E-1,0E0,0E0,7.234616E-1,9.001694E0,0E0,5.624423E-1,1.31894E0,0E0,0E0,5.074923E0,1.4298878E0,2.3254538E-1,0E0,0E0,0E0,2.7192988E0,3.4488099E0,0E0,0E0,8.4217787E-1,0E0,0E0,0E0,2.3957543E0,4.2352552E0,0E0,0E0,5.231454E0,0E0,0E0,0E0,1.4285024E0,4.1445165E0,0E0,0E0,0E0,0E0],"parents":[2147483647,0,0,1,1,2,2,3,3,4,4,5,5,8,8,9,9,12,12,13,13,15,15,16,16,19,19,20,20,21,21,25,25,26,26,29,29,33,33,34,34,37,37,41,41,42,42],"right_children":[2,4,6,8,10,12,-1,-1,14,16,-1,-1,18,20,-1,22,24,-1,-1,26,28,30,-1,-1,-1,32,34,-1,-1,36,-1,-1,-1,38,40,-1,-1,42,-1,-1,-1,44,46,-1,-1,-1,-1],"split_conditions":[1.3155891E0,9.935857E-1,5.6219687E0,8.7191796E-1,9.49907E0,1.836684E0,-9.0743415E-2,-7.823744E-2,5.0514187E1,8.601028E-2,5.0994128E-2,3.0567378E-2,2.1576214E0,1.5120852E1,-6.919052E-2,2.372785E1,3.1289715E1,-6.744697E-2,6.145229E-3,4.5028806E-1,-4.1120472E-8,2.2658194E1,-4.9330755E-3,4.982873E-2,-5.3117067E-2,5.81898E0,2.0300977E-1,5.7525367E-2,2.077779E-1,1.57053385E1,-7.525566E-2,1.3630413E-3,1.9041912E-1,1.4312152E1,1.423866E1,-5.6849223E-2,2.3406228E-2,2.909827E0,-6.8762414E-2,-2.3930948E-2,1.8215176E-1,7.1919244E-3,1.3140322E1,1.982296E-2,-4.156437E-2,-2.5089497E-2,1.9356048E-1],"split_indices":[8,5,8,1,4,2,0,0,0,8,0,0,8,2,0,2,2,0,0,5,8,0,0,0,0,4,8,0,0,1,0,0,0,2,0,0,0,2,0,0,0,8,0,0,0,0,0],"split_type":[0,0,0,0,0,0,0,0,0,0,0,0,0,0,0,0,0,0,0,0,0,0,0,0,0,0,0,0,0,0,0,0,0,0,0,0,0,0,0,0,0,0,0,0,0,0,0],"sum_hessian":[8.12992E1,5.652822E1,2.477098E1,3.716453E1,1.9363688E1,8.807904E0,1.5963077E1,4.9020877E0,3.2262444E1,1.7953598E1,1.4100899E0,1.4674605E0,7.340443E0,3.0101131E1,2.1613116E0,1.4965383E1,2.9882162E0,5.878153E0,1.4622903E0,2.5018019E1,5.083114E0,1.2997377E1,1.9680046E0,1.6050563E0,1.3831598E0,2.8293657E0,2.2188652E1,1.9487598E0,3.1343544E0,4.198577E0,8.7988E0,1.0705491E0,1.7588166E0,1.9449476E1,2.7391768E0,2.9072642E0,1.2913128E0,1.5935807E1,3.5136683E0,1.3657601E0,1.3734165E0,1.3445494E1,2.4903135E0,6.1465664E0,7.2989273E0,1.0185881E0,1.4717255E0],"tree_param":{"num_deleted":"0","num_feature":"9","num_nodes":"47","size_leaf_vector":"1"}},{"base_weights":[-2.0724137E-1,-4.540577E-2,-8.9475736E-2,-2.3706292E-1,3.77319E-1,-6.4975075E-2,-4.7075257E-1,5.045107E-1,-6.474628E-2,-3.5846445E-1,5.3096366E-1,3.554749E-2,-5.393422E-1,1.9596478E-1,1.0702311E0,-4.620976E-1,1.8346374E-1,1.2115353E0,-1.2901758E-1,-6.28232E-2,-6.158885E-1,6.734132E-1,-2.5458312E-1,1.6593449E-1,-7.010808E-2,-5.9603095E-1,-1.3473211E-1,8.2885504E-2,-4.512509E-2,-2.4351018E-2,1.9812453E0,-5.0886225E-2,5.569404E-2,-3.233003E-2,2.5974153E-2,-6.863404E-2,-3.515067E-1,-4.8502993E-2,9.620202E-1,8.360897E-3,-4.0474403E-1,3.051203E-2,-4.0364403E-2,-6.455714E-2,-1.876535E-2,-6.1254855E-2,2.1839382E-1,5.6690034E-2,2.5838125E-1,6.955273E-3,-4.980295E-2,1.5174934E-1,-1.5486582E-4,3.8357307E-3,-5.413952E-2,6.3790077E-1,-5.147902E-2,9.5133685E-2,3.0592945E-3],"categories":[],"categories_nodes":[],"categories_segments":[],"categories_sizes":[],"default_left":[0,0,0,0,0,0,0,0,0,0,0,0,0,0,0,0,0,0,0,0,0,0,0,0,0,0,0,0,0,0,0,0,0,0,0,0,0,0,0,0,0,0,0,0,0,0,0,0,0,0,0,0,0,0,0,0,0,0,0],"id":21,"left_children":[1,3,-1,5,7,9,11,13,-1,15,17,-1,19,21,23,25,27,29,31,33,35,37,39,-1,41,43,45,-1,-1,-1,47,-1,-1,-1,-1,-1,49,-1,51,-1,53,-1,-1,-1,-1,-1,55,-1,-1,-1,-1,-1,-1,-1,-1,57,-1,-1,-1],"loss_changes":[9.078587E0,5.549799E0,0E0,1.8589728E0,3.1173496E0,5.126022E0,1.3119025E0,3.2129302E0,0E0,1.1802084E0,4.519883E0,0E0,6.4152956E-1,3.1641717E0,4.614664E0,6.500671E-1,1.9498913E0,5.946827E0,1.8039672E0,3.9439943E-1,5.590868E-2,2.816603E0,4.341889E-1,0E0,5.2869976E-1,1.1211014E-1,1.1678416E0,0E0,0E0,0E0,1.3480368E0,0E0,0E0,0E0,0E0,0E0,3.6820173E-1,0E0,3.1935267E0,0E0,3.6170346E-1,0E0,0E0,0E0,0E0,0E0,1.6390469E0,0E0,0E0,0E0,0E0,0E0,0E0,0E0,0E0,5.7184374E-1,0E0,0E0,0E0],"parents":[2147483647,0,0,1,1,3,3,4,4,5,5,6,6,7,7,9,9,10,10,12,12,13,13,14,14,15,15,16,16,17,17,18,18,19,19,20,20,21,21,22,22,24,24,25,25,26,26,30,30,36,36,38,38,40,40,46,46,55,55],"right_children":[2,4,-1,6,8,10,12,14,-1,16,18,-1,20,22,24,26,28,30,32,34,36,38,40,-1,42,44,46,-1,-1,-1,48,-1,-1,-1,-1,-1,50,-1,52,-1,54,-1,-1,-1,-1,-1,56,-1,-1,-1,-1,-1,-1,-1,-1,58,-1,-1,-1],"split_conditions":[5.3961787E0,7.8750525E0,-8.9475736E-2,8.48544E-1,5.2131527E1,5.81898E0,9.6342397E-1,3.898904E-1,-6.474628E-2,3.6828473E-1,7.296606E0,3.554749E-2,1.1072107E1,8.977144E-1,9.813102E-1,2.1284074E-2,1.19242325E1,1.646338E1,6.1945784E-1,1.4324411E-8,2.3969322E1,2.8090734E-2,4.978261E-2,1.6593449E-1,6.196884E-1,2.1368292E1,1.500008E0,8.2885504E-2,-4.512509E-2,-2.4351018E-2,1.1121461E-2,-5.0886225E-2,5.569404E-2,-3.233003E-2,2.5974153E-2,-6.863404E-2,2.9569384E1,-4.8502993E-2,3.645544E1,8.360897E-3,5.4008707E-2,3.051203E-2,-4.0364403E-2,-6.455714E-2,-1.876535E-2,-6.1254855E-2,1.2963408E1,5.6690034E-2,2.5838125E-1,6.955273E-3,-4.980295E-2,1.5174934E-1,-1.5486582E-4,3.8357307E-3,-5.413952E-2,7.9025507E-1,-5.147902E-2,9.5133685E-2,3.0592945E-3],"split_indices":[8,4,0,6,0,4,5,6,0,6,4,0,3,5,6,8,3,0,5,8,0,5,6,0,8,0,4,0,0,0,6,0,0,0,0,0,0,0,0,0,8,0,0,0,0,0,3,0,0,0,0,0,0,0,0,8,0,0,0],"split_type":[0,0,0,0,0,0,0,0,0,0,0,0,0,0,0,0,0,0,0,0,0,0,0,0,0,0,0,0,0,0,0,0,0,0,0,0,0,0,0,0,0,0,0,0,0,0,0,0,0,0,0,0,0,0,0,0,0,0,0],"sum_hessian":[8.095974E1,6.6396576E1,1.4563164E1,4.598628E1,2.0410294E1,2.7219799E1,1.876648E1,1.8608387E1,1.8019067E0,1.8504932E1,8.714868E0,1.117884E0,1.7648596E1,1.2912346E1,5.696041E0,1.5657963E1,2.8469696E0,3.879067E0,4.8358E0,2.6946237E0,1.4953972E1,6.0288653E0,6.8834805E0,3.4556668E0,2.2403743E0,1.0529423E1,5.12854E0,1.2599525E0,1.5870169E0,1.5785806E0,2.3004863E0,3.2785165E0,1.5572838E0,1.4895244E0,1.2050992E0,1.0547321E1,4.4066505E0,1.0666871E0,4.962178E0,2.2528408E0,4.6306396E0,1.0943849E0,1.1459893E0,8.8723E0,1.6571227E0,1.8672749E0,3.261265E0,1.2671179E0,1.0333685E0,1.2731984E0,3.133452E0,2.7829883E0,2.17919E0,1.2610143E0,3.3696253E0,2.1570315E0,1.1042336E0,1.0491008E0,1.1079308E0],"tree_param":{"num_deleted":"0","num_feature":"9","num_nodes":"59","size_leaf_vector":"1"}},{"base_weights":[-1.234909E-1,5.957251E-2,-8.8823885E-2,-1.512681E-1,5.398946E-1,-7.036918E-2,-5.6417733E-2,1.0219773E0,-1.2504771E-1,4.0056092E-1,-2.2232269E-1,4.1284028E-1,1.7976153E-1,9.484411E-2,-6.1485314E-1,-9.1298465E-3,2.0605838E-1,-2.9056463E-1,5.4464053E-2,9.4364375E-1,-3.8768864E-1,-6.800134E-2,-1.754201E-2,8.549654E-2,-3.1224078E-1,-3.7672403E-1,4.0163153E-1,-4.6816763E-2,1.4503156E-1,-5.3335436E-2,-2.8460878E-3,2.1286996E-2,-5.3429026E-2,5.2903004E-2,-4.4845897E-1,-3.136104E-2,8.825385E-2,7.832208E-2,-5.9779298E-2,1.4257438E-2,-5.1059204E-1,-5.853815E-3,-5.3737277E-1,-5.8562785E-2,-2.03521E-2],"categories":[],"categories_nodes":[],"categories_segments":[],"categories_sizes":[],"default_left":[0,0,0,0,0,0,0,0,0,0,0,0,0,0,0,0,0,0,0,0,0,0,0,0,0,0,0,0,0,0,0,0,0,0,0,0,0,0,0,0,0,0,0,0,0],"id":22,"left_children":[1,3,-1,5,7,-1,9,11,13,15,17,19,-1,-1,21,23,-1,25,-1,27,29,-1,-1,-1,31,33,35,-1,-1,-1,-1,37,-1,-1,39,-1,-1,-1,-1,-1,41,-1,43,-1,-1],"loss_changes":[1.02680855E1,6.1388087E0,0E0,2.1791608E0,6.046667E0,0E0,2.9115262E0,4.3666773E0,5.1320343E0,7.0052395E0,1.6214288E0,3.4910145E0,0E0,0E0,6.818819E-2,2.6857185E0,0E0,1.721225E0,0E0,4.050719E0,1.753493E-1,0E0,0E0,0E0,5.719424E-1,1.7918057E0,1.4455216E0,0E0,0E0,0E0,0E0,2.3488047E0,0E0,0E0,9.0681267E-1,0E0,0E0,0E0,0E0,0E0,2.1997929E-1,0E0,1.9471931E-1,0E0,0E0],"parents":[2147483647,0,0,1,1,3,3,4,4,6,6,7,7,8,8,9,9,10,10,11,11,14,14,15,15,17,17,19,19,20,20,24,24,25,25,26,26,31,31,34,34,40,40,42,42],"right_children":[2,4,-1,6,8,-1,10,12,14,16,18,20,-1,-1,22,24,-1,26,-1,28,30,-1,-1,-1,32,34,36,-1,-1,-1,-1,38,-1,-1,40,-1,-1,-1,-1,-1,42,-1,44,-1,-1],"split_conditions":[5.6219687E0,7.8750525E0,-8.8823885E-2,1.8651795E0,3.645544E1,-7.036918E-2,9.2029613E-1,8.4890895E-2,1.6570666E-1,7.774087E-1,2.9904034E1,9.7843075E-1,1.7976153E-1,9.484411E-2,9.2918456E-1,2.0108791E1,2.0605838E-1,4.8089808E-1,5.4464053E-2,2.8090734E-2,-4.1120472E-8,-6.800134E-2,-1.754201E-2,8.549654E-2,1.48559265E1,3.0521233E-2,1.0307109E-2,-4.6816763E-2,1.4503156E-1,-5.3335436E-2,-2.8460878E-3,7.593758E-1,-5.3429026E-2,5.2903004E-2,4.405676E0,-3.136104E-2,8.825385E-2,7.832208E-2,-5.9779298E-2,1.4257438E-2,1.4497589E-1,-5.853815E-3,9.640579E-1,-5.8562785E-2,-2.03521E-2],"split_indices":[8,4,0,4,0,0,5,6,8,5,1,5,0,0,5,0,0,8,0,5,8,0,0,0,3,6,6,0,0,0,0,5,0,0,4,0,0,0,0,0,6,0,6,0,0],"split_type":[0,0,0,0,0,0,0,0,0,0,0,0,0,0,0,0,0,0,0,0,0,0,0,0,0,0,0,0,0,0,0,0,0,0,0,0,0,0,0,0,0,0,0,0,0],"sum_hessian":[7.196689E1,5.8810966E1,1.3155918E1,4.134665E1,1.746432E1,5.118239E0,3.622841E1,9.812976E0,7.651344E0,9.272706E0,2.6955704E1,6.354675E0,3.4583013E0,2.1039124E0,5.5474315E0,8.234858E0,1.0378484E0,2.5323635E1,1.6320674E0,3.7135625E0,2.6411123E0,4.354288E0,1.1931434E0,1.6657048E0,6.569153E0,2.2925764E1,2.3978722E0,1.0008224E0,2.71274E0,1.534253E0,1.1068593E0,2.986874E0,3.5822785E0,1.2146255E0,2.1711138E1,1.1039178E0,1.2939545E0,1.2200987E0,1.7667755E0,1.9421364E0,1.9769001E1,1.2838396E0,1.848516E1,1.5491812E1,2.99335E0],"tree_param":{"num_deleted":"0","num_feature":"9","num_nodes":"45","size_leaf_vector":"1"}},{"base_weights":[-1.9051187E-1,-8.101843E-2,-9.054326E-2,-8.4270835E-2,3.9714016E-2,6.6386116E-1,-1.595322E-1,3.6912057E-1,1.7927627E-1,-2.7604803E-1,9.1674614E-1,-1.0396932E-1,8.0432546E-1,-3.3969733E-1,1.00154E-1,1.3787954E-1,6.7110336E-3,2.6993337E-1,-4.7101613E-2,1.5847953E-1,-4.2284973E-2,-3.9265546E-1,7.922923E-2,-1.1902523E-2,5.260114E-2,-3.9584022E-2,3.2040577E-2,-2.0538816E-1,-5.9571797E-1,-3.263474E-1,4.9619305E-1,3.538308E-3,-6.406204E-1,-4.523625E-1,1.8752662E-2,8.596282E-2,3.6338412E-3,-1.958127E-2,-6.6233295E-1,-1.4038965E-3,-5.656135E-2,6.7013614E-2,-4.5872808E-2,-7.208842E-2,-3.6306765E-2],"categories":[],"categories_nodes":[],"categories_segments":[],"categories_sizes":[],"default_left":[0,0,0,0,0,0,0,0,0,0,0,0,0,0,0,0,0,0,0,0,0,0,0,0,0,0,0,0,0,0,0,0,0,0,0,0,0,0,0,0,0,0,0,0,0],"id":23,"left_children":[1,3,-1,-1,5,7,9,11,-1,13,15,17,19,21,-1,-1,-1,23,-1,-1,25,27,-1,-1,-1,-1,-1,29,31,33,35,-1,37,39,41,-1,-1,-1,43,-1,-1,-1,-1,-1,-1],"loss_changes":[5.9565725E0,6.277472E0,0E0,0E0,7.513197E0,4.198521E0,6.0161934E0,2.727726E0,0E0,3.774754E0,1.760659E0,1.0931498E0,4.5623903E0,2.7676759E0,0E0,0E0,0E0,4.7322914E-1,0E0,0E0,6.7020106E-1,1.391715E0,0E0,0E0,0E0,0E0,0E0,2.0492458E0,5.490742E-1,8.596442E-1,5.816545E-1,0E0,3.8301468E-2,7.0573807E-1,2.2343447E0,0E0,0E0,0E0,2.1523476E-2,0E0,0E0,0E0,0E0,0E0,0E0],"parents":[2147483647,0,0,1,1,4,4,5,5,6,6,7,7,9,9,10,10,11,11,12,12,13,13,17,17,20,20,21,21,27,27,28,28,29,29,30,30,32,32,33,33,34,34,38,38],"right_children":[2,4,-1,-1,6,8,10,12,-1,14,16,18,20,22,-1,-1,-1,24,-1,-1,26,28,-1,-1,-1,-1,-1,30,32,34,36,-1,38,40,42,-1,-1,-1,44,-1,-1,-1,-1,-1,-1],"split_conditions":[5.0514187E1,1.09018E0,-9.054326E-2,-8.4270835E-2,8.977144E-1,7.8418815E-1,2.5811852E1,1.3812318E1,1.7927627E-1,1.3708807E0,9.813102E-1,6.9113934E-1,2.2616806E1,2.0535217E1,1.00154E-1,1.3787954E-1,6.7110336E-3,4.1346326E0,-4.7101613E-2,1.5847953E-1,2.3830921E1,9.935857E-1,7.922923E-2,-1.1902523E-2,5.260114E-2,-3.9584022E-2,3.2040577E-2,1.788309E1,8.132263E-2,1.3812318E1,1.5912344E1,3.538308E-3,9.301716E0,1.01222725E1,1.8022837E1,8.596282E-2,3.6338412E-3,-1.958127E-2,9.46932E-1,-1.4038965E-3,-5.656135E-2,6.7013614E-2,-4.5872808E-2,-7.208842E-2,-3.6306765E-2],"split_indices":[0,1,0,0,5,5,2,3,0,7,6,5,3,3,0,0,0,1,0,0,3,5,0,0,0,0,0,2,6,3,3,0,3,3,3,0,0,0,6,0,0,0,0,0,0],"split_type":[0,0,0,0,0,0,0,0,0,0,0,0,0,0,0,0,0,0,0,0,0,0,0,0,0,0,0,0,0,0,0,0,0,0,0,0,0,0,0,0,0,0,0,0,0],"sum_hessian":[7.603114E1,6.6898636E1,9.132511E0,8.334853E0,5.856378E1,1.3607102E1,4.495668E1,1.1842233E1,1.7648697E0,4.123606E1,3.7206209E0,6.038825E0,5.803407E0,3.9978447E1,1.257611E0,2.0065897E0,1.7140313E0,3.1225405E0,2.9162846E0,2.565971E0,3.2374365E0,3.8815655E1,1.1627934E0,1.4521141E0,1.6704264E0,1.5930822E0,1.6443545E0,2.1239616E1,1.7576038E1,1.85724E1,2.667217E0,1.1815426E0,1.6394497E1,1.3376927E1,5.195472E0,1.0042136E0,1.6630036E0,1.2292949E0,1.5165201E1,2.9773674E0,1.039956E1,2.0268888E0,3.1685827E0,1.1505335E1,3.659866E0],"tree_param":{"num_deleted":"0","num_feature":"9","num_nodes":"45","size_leaf_vector":"1"}},{"base_weights":[-1.6244265E-1,4.5324292E-2,-6.8470734E-1,5.03917E-1,-1.4320567E-1,-3.7173754E-1,-8.741109E-2,-6.1754817E-1,1.0584154E0,-3.9683968E-1,2.3801947E-2,2.4955563E-2,-5.158725E-1,-7.311394E-2,-1.4078304E-2,1.2392477E0,1.1485417E-2,4.675999E-2,-5.2209944E-1,6.038182E-1,-2.3597008E-1,-6.535145E-2,1.1808499E-3,5.72869E-3,1.3809553E0,-3.6802594E-2,4.9428906E-2,-6.175221E-1,2.4814324E-2,-1.24738805E-1,1.189744E0,-3.5189065E-1,2.5915805E-1,2.1255991E0,6.781774E-1,-2.203515E-2,-6.5196306E-1,-4.130562E-2,1.9582994E-2,1.7166716E-1,-2.573669E-2,-4.6514666E-1,5.038596E-2,9.211178E-2,-2.9937103E-2,4.241981E-2,2.6673543E-1,-1.8039323E-2,1.1543609E-1,-2.2768293E-2,-7.187628E-2,-1.3023366E-1,-5.418606E-1,-4.3948054E-2,1.6013926E-2,-6.13019E-1,-2.4775065E-2,-1.7011167E-2,-7.124068E-2],"categories":[],"categories_nodes":[],"categories_segments":[],"categories_sizes":[],"default_left":[0,0,0,0,0,0,0,0,0,0,0,0,0,0,0,0,0,0,0,0,0,0,0,0,0,0,0,0,0,0,0,0,0,0,0,0,0,0,0,0,0,0,0,0,0,0,0,0,0,0,0,0,0,0,0,0,0,0,0],"id":24,"left_children":[1,3,5,7,9,11,-1,13,15,17,19,-1,21,-1,-1,23,-1,25,27,29,31,-1,-1,-1,33,-1,-1,35,-1,37,39,41,43,45,47,-1,49,-1,-1,-1,-1,51,-1,-1,-1,-1,-1,-1,-1,-1,-1,53,55,-1,-1,57,-1,-1,-1],"loss_changes":[7.9592853E0,4.6725087E0,9.113779E-1,1.0430919E1,1.6396596E0,9.8870575E-1,0E0,2.1298909E-1,1.7156858E0,8.765967E-1,3.7810895E0,0E0,5.9754586E-1,0E0,0E0,1.4343452E0,0E0,9.79158E-1,1.0382891E0,3.4571848E0,1.0897698E0,0E0,0E0,0E0,2.7582655E0,0E0,0E0,6.8211555E-3,0E0,4.838746E-1,3.7900162E0,1.6417942E0,1.7089665E0,2.0282927E0,2.4966056E0,0E0,1.0879135E-1,0E0,0E0,0E0,0E0,2.7228212E-1,0E0,0E0,0E0,0E0,0E0,0E0,0E0,0E0,0E0,4.1190717E-1,6.873107E-2,0E0,0E0,2.2257161E-1,0E0,0E0,0E0],"parents":[2147483647,0,0,1,1,2,2,3,3,4,4,5,5,7,7,8,8,9,9,10,10,12,12,15,15,17,17,18,18,19,19,20,20,24,24,27,27,29,29,30,30,31,31,32,32,33,33,34,34,36,36,41,41,51,51,52,52,55,55],"right_children":[2,4,6,8,10,12,-1,14,16,18,20,-1,22,-1,-1,24,-1,26,28,30,32,-1,-1,-1,34,-1,-1,36,-1,38,40,42,44,46,48,-1,50,-1,-1,-1,-1,52,-1,-1,-1,-1,-1,-1,-1,-1,-1,54,56,-1,-1,58,-1,-1,-1],"split_conditions":[1.3155891E0,9.2029613E-1,5.7838182E0,2.3940098E0,2.0108791E1,8.977144E-1,-8.741109E-2,3.470419E-2,3.8183643E1,1.01222725E1,9.8609215E-1,2.4955563E-2,2.1576214E0,-7.311394E-2,-1.4078304E-2,1.423866E1,1.1485417E-2,1.0286358E1,1.3812318E1,-4.1120472E-8,8.601028E-2,-6.535145E-2,1.1808499E-3,5.72869E-3,1.5912344E1,-3.6802594E-2,4.9428906E-2,1.1072107E1,2.4814324E-2,1.2963408E1,2.6236546E1,1.937521E1,6.196884E-1,-4.1120472E-8,1.6844316E1,-2.203515E-2,7.1919244E-3,-4.130562E-2,1.9582994E-2,1.7166716E-1,-2.573669E-2,2.469433E1,5.038596E-2,9.211178E-2,-2.9937103E-2,4.241981E-2,2.6673543E-1,-1.8039323E-2,1.1543609E-1,-2.2768293E-2,-7.187628E-2,2.6611957E-1,2.5811852E1,-4.3948054E-2,1.6013926E-2,1.6844316E1,-2.4775065E-2,-1.7011167E-2,-7.124068E-2],"split_indices":[8,5,8,1,0,5,0,5,0,3,5,0,8,0,0,0,0,1,3,8,8,0,0,0,3,0,0,3,0,3,3,3,8,8,3,0,8,0,0,0,0,1,0,0,0,0,0,0,0,0,0,2,2,0,0,3,0,0,0],"split_type":[0,0,0,0,0,0,0,0,0,0,0,0,0,0,0,0,0,0,0,0,0,0,0,0,0,0,0,0,0,0,0,0,0,0,0,0,0,0,0,0,0,0,0,0,0,0,0,0,0,0,0,0,0,0,0,0,0,0,0],"sum_hessian":[7.206515E1,5.220873E1,1.985642E1,1.4722901E1,3.748583E1,8.603198E0,1.1253223E1,4.8335037E0,9.889398E0,1.43366375E1,2.314919E1,1.4823087E0,7.1208897E0,3.4726002E0,1.3609034E0,8.035946E0,1.8534511E0,3.294845E0,1.1041793E1,6.7510657E0,1.6398125E1,5.4585886E0,1.6623007E0,1.0106381E0,7.025308E0,1.8021744E0,1.4926705E0,1.0001071E1,1.0407215E0,3.360113E0,3.390953E0,1.3521688E1,2.8764358E0,2.4280488E0,4.597259E0,1.3883752E0,8.612696E0,1.6171492E0,1.7429637E0,2.3492572E0,1.0416958E0,1.2344391E1,1.1772981E0,1.0192509E0,1.8571849E0,1.017032E0,1.411017E0,1.861713E0,2.7355464E0,1.7712162E0,6.84148E0,2.8033495E0,9.541041E0,1.1088846E0,1.6944649E0,6.8092566E0,2.7317843E0,1.7449102E0,5.0643463E0],"tree_param":{"num_deleted":"0","num_feature":"9","num_nodes":"59","size_leaf_vector":"1"}},{"base_weights":[-1.6877253E-1,-6.52896E-2,-8.923248E-2,-4.167861E-1,2.2237502E-1,-5.1336616E-1,2.1416697E-1,5.613639E-1,-5.599781E-2,-7.740192E-2,-3.907886E-1,8.738288E-2,-4.6936058E-2,-1.4015467E-1,8.0204105E-1,-1.6500813E-1,9.6262105E-2,8.9258954E-2,-5.3285073E-2,3.23939E-2,-4.3642517E-2,1.1587372E0,1.9490151E-1,-2.861256E-1,4.3553746E-1,-1.7577331E-1,5.005094E-2,1.8034029E0,3.994402E-1,-2.0738052E-1,7.690105E-2,-4.0592544E-2,-5.453551E-1,-3.6303304E-2,8.708013E-2,-2.2639576E-2,-3.2091585E-3,4.3496814E-2,2.1389401E-1,8.4650494E-2,-2.8432623E-2,-4.6251517E-2,2.2661205E-2,-4.5607662E-1,9.688798E-2,-2.4196112E-3,-6.2666655E-1,-5.956008E-1,-4.903385E-3,-7.009657E-2,-1.976924E-2,1.4300204E-3,-7.630266E-2],"categories":[],"categories_nodes":[],"categories_segments":[],"categories_sizes":[],"default_left":[0,0,0,0,0,0,0,0,0,0,0,0,0,0,0,0,0,0,0,0,0,0,0,0,0,0,0,0,0,0,0,0,0,0,0,0,0,0,0,0,0,0,0,0,0,0,0,0,0,0,0,0,0],"id":25,"left_children":[1,3,-1,5,7,9,11,13,15,-1,17,-1,-1,19,21,23,-1,25,-1,-1,-1,27,29,31,33,35,-1,37,39,41,-1,43,45,-1,-1,-1,-1,-1,-1,-1,-1,-1,-1,47,-1,-1,49,51,-1,-1,-1,-1,-1],"loss_changes":[5.3553085E0,6.5976295E0,0E0,1.895546E0,3.431529E0,5.1885605E-1,2.4822335E0,2.870813E0,2.4566753E0,0E0,1.3776703E0,0E0,0E0,8.322336E-1,2.4406948E0,1.5463942E0,0E0,6.6677845E-1,0E0,0E0,0E0,2.9772434E0,1.4895337E0,1.0516194E0,1.5942347E0,2.1605752E-2,0E0,8.14826E-1,1.6936458E0,5.66965E-1,0E0,4.528804E0,3.2917047E-1,0E0,0E0,0E0,0E0,0E0,0E0,0E0,0E0,0E0,0E0,4.0144992E-1,0E0,0E0,8.4174395E-2,5.7840824E-1,0E0,0E0,0E0,0E0,0E0],"parents":[2147483647,0,0,1,1,3,3,4,4,5,5,6,6,7,7,8,8,10,10,13,13,14,14,15,15,17,17,21,21,22,22,23,23,24,24,25,25,27,27,28,28,29,29,31,31,32,32,43,43,46,46,47,47],"right_children":[2,4,-1,6,8,10,12,14,16,-1,18,-1,-1,20,22,24,-1,26,-1,-1,-1,28,30,32,34,36,-1,38,40,42,-1,44,46,-1,-1,-1,-1,-1,-1,-1,-1,-1,-1,48,-1,-1,50,52,-1,-1,-1,-1,-1],"split_conditions":[5.0514187E1,2.0108791E1,-8.923248E-2,6.278134E0,2.9569384E1,8.767846E0,1.6999617E1,5.304726E0,3.2244205E1,-7.740192E-2,4.405676E0,8.738288E-2,-4.6936058E-2,9.8609215E-1,8.48544E-1,1.1954411E1,9.6262105E-2,7.7911863E0,-5.3285073E-2,3.23939E-2,-4.3642517E-2,8.410152E0,9.46932E-1,9.8609215E-1,2.1994875E-1,1.3140322E1,5.005094E-2,3.0036243E-3,9.935857E-1,2.2658194E1,7.690105E-2,5.277364E-2,1.8760405E1,-3.6303304E-2,8.708013E-2,-2.2639576E-2,-3.2091585E-3,4.3496814E-2,2.1389401E-1,8.4650494E-2,-2.8432623E-2,-4.6251517E-2,2.2661205E-2,1.504453E-1,9.688798E-2,-2.4196112E-3,2.8975729E1,1.2049304E-1,-4.903385E-3,-7.009657E-2,-1.976924E-2,1.4300204E-3,-7.630266E-2],"split_indices":[0,0,0,4,0,0,2,4,2,0,4,0,0,5,6,4,0,3,0,0,0,4,6,5,5,0,0,6,5,0,0,6,2,0,0,0,0,0,0,0,0,0,0,2,0,0,2,2,0,0,0,0,0],"split_type":[0,0,0,0,0,0,0,0,0,0,0,0,0,0,0,0,0,0,0,0,0,0,0,0,0,0,0,0,0,0,0,0,0,0,0,0,0,0,0,0,0,0,0,0,0,0,0,0,0,0,0,0,0],"sum_hessian":[7.130111E1,6.3333363E1,7.967745E0,2.8302168E1,3.5031193E1,2.4706678E1,3.5954902E0,1.5337429E1,1.9693764E1,6.202645E0,1.8504034E1,1.6880085E0,1.9074816E0,4.0245256E0,1.1312903E1,1.8546923E1,1.1468424E0,4.3103747E0,1.4193659E1,1.5317395E0,2.4927864E0,6.5539317E0,4.758971E0,1.5869862E1,2.677061E0,2.9693508E0,1.3410239E0,2.8008397E0,3.7530923E0,3.1738274E0,1.5851438E0,8.744226E0,7.1256347E0,1.0029373E0,1.6741239E0,1.7700465E0,1.1993043E0,1.0037087E0,1.797131E0,2.125428E0,1.6276643E0,1.9573959E0,1.2164314E0,6.5829735E0,2.161253E0,1.1368253E0,5.9888096E0,4.5575275E0,2.0254462E0,4.5642266E0,1.4245828E0,1.1786203E0,3.378907E0],"tree_param":{"num_deleted":"0","num_feature":"9","num_nodes":"53","size_leaf_vector":"1"}},{"base_weights":[-2.3918635E-1,-1.23811625E-1,-8.130208E-1,3.450274E-2,-4.3850756E-1,-8.4829986E-2,-2.7530892E-2,-1.5856677E-1,3.3234087E-1,-5.091222E-1,4.2695563E-2,-6.886239E-2,-5.8972258E-2,5.983619E-1,-2.770994E-1,-5.6412405E-1,6.831616E-3,5.277662E-1,-2.865664E-1,7.4973315E-2,1.157258E0,-5.794331E-2,2.7506277E-2,-6.5701586E-1,-9.824867E-2,-1.8104757E-1,1.5281832E-1,-4.542499E-1,-2.0155016E-2,7.9308075E-1,-6.0379524E-2,1.885938E-1,6.240416E-1,-3.3596766E-1,-7.4072056E-2,4.64272E-2,-5.2040856E-2,1.7483095E-2,-3.6371905E-1,6.343583E-3,-5.373243E-1,7.831092E-1,-5.0328624E-1,-2.3989411E-2,1.3993119E-1,-2.5203813E-2,9.7842276E-1,-5.1431883E-2,1.03037935E-2,-1.4155708E-2,-4.4261623E-2,-6.1667692E-2,-1.4585011E-2,-1.7512647E-2,1.3626961E-1,-6.286081E-2,-9.593612E-3,1.16956785E-1,2.6338995E-2],"categories":[],"categories_nodes":[],"categories_segments":[],"categories_sizes":[],"default_left":[0,0,0,0,0,0,0,0,0,0,0,0,0,0,0,0,0,0,0,0,0,0,0,0,0,0,0,0,0,0,0,0,0,0,0,0,0,0,0,0,0,0,0,0,0,0,0,0,0,0,0,0,0,0,0,0,0,0,0],"id":26,"left_children":[1,3,5,7,9,-1,-1,11,13,15,-1,-1,17,19,21,23,-1,25,27,29,31,-1,-1,33,35,37,-1,39,41,43,-1,-1,45,47,-1,-1,-1,-1,49,-1,51,53,55,-1,-1,-1,57,-1,-1,-1,-1,-1,-1,-1,-1,-1,-1,-1,-1],"loss_changes":[5.032002E0,3.2897267E0,9.238243E-3,2.620561E0,1.5662651E0,0E0,0E0,1.4253942E0,3.0655098E0,7.0114183E-1,0E0,0E0,3.4190848E0,3.6479602E0,1.1807537E0,7.6445866E-1,0E0,5.3760605E0,8.0746186E-1,4.2137413E0,1.195158E0,0E0,0E0,1.7562866E-1,1.277106E0,3.9533836E-1,0E0,5.145664E-1,3.5405698E0,2.937988E0,0E0,0E0,1.805093E0,4.5205253E-1,0E0,0E0,0E0,0E0,2.1423995E-3,0E0,2.1240711E-1,2.147062E0,2.292198E-1,0E0,0E0,0E0,2.0843315E-1,0E0,0E0,0E0,0E0,0E0,0E0,0E0,0E0,0E0,0E0,0E0,0E0],"parents":[2147483647,0,0,1,1,2,2,3,3,4,4,7,7,8,8,9,9,12,12,13,13,14,14,15,15,17,17,18,18,19,19,20,20,23,23,24,24,25,25,27,27,28,28,29,29,32,32,33,33,38,38,40,40,41,41,42,42,46,46],"right_children":[2,4,6,8,10,-1,-1,12,14,16,-1,-1,18,20,22,24,-1,26,28,30,32,-1,-1,34,36,38,-1,40,42,44,-1,-1,46,48,-1,-1,-1,-1,50,-1,52,54,56,-1,-1,-1,58,-1,-1,-1,-1,-1,-1,-1,-1,-1,-1,-1,-1],"split_conditions":[3.647843E0,9.935857E-1,9.6342397E-1,2.909827E0,9.49907E0,-8.4829986E-2,-2.7530892E-2,8.7191796E-1,2.7833147E1,2.5811852E1,4.2695563E-2,-6.886239E-2,1.2311944E-1,1.2963408E1,7.296606E0,8.601028E-2,6.831616E-3,6.278134E0,5.151813E-1,5.81898E0,1.5912344E1,-5.794331E-2,2.7506277E-2,2.2218798E1,1.3155891E0,1.1072107E1,1.5281832E-1,2.0108791E1,1.836684E0,2.9155953E0,-6.0379524E-2,1.885938E-1,2.2658194E1,1.646338E1,-7.4072056E-2,4.64272E-2,-5.2040856E-2,1.7483095E-2,9.548034E-1,6.343583E-3,8.881708E0,4.8305874E0,2.1145124E0,-2.3989411E-2,1.3993119E-1,-2.5203813E-2,2.2616806E1,-5.1431883E-2,1.03037935E-2,-1.4155708E-2,-4.4261623E-2,-6.1667692E-2,-1.4585011E-2,-1.7512647E-2,1.3626961E-1,-6.286081E-2,-9.593612E-3,1.16956785E-1,2.6338995E-2],"split_indices":[8,5,5,2,4,0,0,1,2,2,0,0,2,3,4,8,0,4,2,4,3,0,0,1,8,3,0,0,2,4,0,0,0,0,0,0,0,0,5,0,4,4,2,0,0,0,3,0,0,0,0,0,0,0,0,0,0,0,0],"split_type":[0,0,0,0,0,0,0,0,0,0,0,0,0,0,0,0,0,0,0,0,0,0,0,0,0,0,0,0,0,0,0,0,0,0,0,0,0,0,0,0,0,0,0,0,0,0,0,0,0,0,0,0,0,0,0,0,0,0,0],"sum_hessian":[7.6525665E1,6.4727394E1,1.1798277E1,4.3655792E1,2.1071598E1,1.052981E1,1.2684662E0,2.677007E1,1.6885725E1,1.98627E1,1.2088981E0,3.2988436E0,2.3471226E1,1.1767418E1,5.1183066E0,1.815634E1,1.7063603E0,6.1912556E0,1.727997E1,6.662418E0,5.1049995E0,3.275457E0,1.84285E0,1.4795878E1,3.3604617E0,4.103136E0,2.0881195E0,1.01722975E1,7.1076717E0,3.1555612E0,3.506857E0,1.0851506E0,4.019849E0,4.0967135E0,1.0699164E1,1.3979561E0,1.9625057E0,1.4063066E0,2.6968296E0,1.4393368E0,8.732961E0,2.4362338E0,4.6714377E0,1.3905125E0,1.7650487E0,1.2409185E0,2.7789304E0,2.7912016E0,1.3055122E0,1.439008E0,1.2578216E0,6.7828035E0,1.950157E0,1.1811959E0,1.2550379E0,3.157014E0,1.514424E0,1.6911595E0,1.0877709E0],"tree_param":{"num_deleted":"0","num_feature":"9","num_nodes":"59","size_leaf_vector":"1"}},{"base_weights":[-1.341405E-1,8.38709E-3,-8.007234E-1,-7.371259E-2,7.927585E-2,-3.9515864E-2,-8.8221684E-2,1.4467072E-1,-7.609064E-2,6.324053E-2,1.5729605E-1,-1.1646769E-1,4.5788902E-1,-2.3339337E-1,9.303998E-2,8.274345E-1,-4.0466213E-1,-4.220178E-1,-6.560265E-2,-2.2577854E-2,1.2424598E0,-6.0950425E-2,-8.4041834E-2,1.4886813E-3,-4.8272806E-1,-2.554352E-1,5.9422124E-2,5.1662534E-2,-3.3955984E-2,1.7018026E-1,-4.386616E-2,3.2934364E-2,-4.4800658E-2,-1.6084006E-1,-6.1986667E-1,3.8752937E-1,-4.014098E-1,-4.3347906E-2,4.0821057E-2,-7.15503E-2,-1.9923627E-2,-2.4543015E-2,8.3062254E-2,-6.751082E-2,-3.7267841E-3],"categories":[],"categories_nodes":[],"categories_segments":[],"categories_sizes":[],"default_left":[0,0,0,0,0,0,0,0,0,0,0,0,0,0,0,0,0,0,0,0,0,0,0,0,0,0,0,0,0,0,0,0,0,0,0,0,0,0,0,0,0,0,0,0,0],"id":27,"left_children":[1,3,5,-1,7,-1,-1,9,-1,11,-1,13,15,17,-1,19,21,23,25,27,29,-1,31,-1,33,35,-1,-1,-1,-1,-1,-1,-1,37,39,41,43,-1,-1,-1,-1,-1,-1,-1,-1],"loss_changes":[6.4215145E0,3.0504763E0,4.4826984E-2,0E0,3.0002449E0,0E0,0E0,5.6744175E0,0E0,3.4581494E0,0E0,4.352546E0,5.1874743E0,9.5944464E-1,0E0,3.9037228E0,2.9277027E-1,3.9176965E-1,2.3676128E0,9.5932704E-1,6.4606915E0,0E0,6.2927806E-1,0E0,4.635737E-1,1.5105944E0,0E0,0E0,0E0,0E0,0E0,0E0,0E0,9.7790444E-1,2.0330262E-1,1.0957462E0,1.1964583E0,0E0,0E0,0E0,0E0,0E0,0E0,0E0,0E0],"parents":[2147483647,0,0,1,1,2,2,4,4,7,7,9,9,11,11,12,12,13,13,15,15,16,16,17,17,18,18,19,19,20,20,22,22,24,24,25,25,33,33,34,34,35,35,36,36],"right_children":[2,4,6,-1,8,-1,-1,10,-1,12,-1,14,16,18,-1,20,22,24,26,28,30,-1,32,-1,34,36,-1,-1,-1,-1,-1,-1,-1,38,40,42,44,-1,-1,-1,-1,-1,-1,-1,-1],"split_conditions":[3.647843E0,8.7191796E-1,9.957241E0,-7.371259E-2,1.1404264E1,-3.9515864E-2,-8.8221684E-2,1.3708807E0,-7.609064E-2,8.601028E-2,1.5729605E-1,9.49907E0,3.645544E1,-4.1120472E-8,9.303998E-2,1.646338E1,1.3966735E-1,2.4675919E-2,1.5120852E1,4.8305874E0,3.1289715E1,-6.0950425E-2,1.7068945E0,1.4886813E-3,7.296606E0,1.2789557E1,5.9422124E-2,5.1662534E-2,-3.3955984E-2,1.7018026E-1,-4.386616E-2,3.2934364E-2,-4.4800658E-2,5.194758E-1,2.6629314E1,3.243268E0,1.57053385E1,-4.3347906E-2,4.0821057E-2,-7.15503E-2,-1.9923627E-2,-2.4543015E-2,8.3062254E-2,-6.751082E-2,-3.7267841E-3],"split_indices":[8,1,8,0,7,0,0,7,0,8,0,4,0,8,0,0,2,6,2,4,2,0,8,0,4,1,0,0,0,0,0,0,0,6,0,4,1,0,0,0,0,0,0,0,0],"split_type":[0,0,0,0,0,0,0,0,0,0,0,0,0,0,0,0,0,0,0,0,0,0,0,0,0,0,0,0,0,0,0,0,0,0,0,0,0,0,0,0,0,0,0,0,0],"sum_hessian":[6.651961E1,5.5615433E1,1.0904178E1,4.0130634E0,5.1602367E1,2.8030958E0,8.101082E0,4.8644012E1,2.9583552E0,4.700824E1,1.6357743E0,3.278435E1,1.4223889E1,3.018951E1,2.5948412E0,9.986188E0,4.237701E0,1.3499125E1,1.6690386E1,3.5864294E0,6.399759E0,2.0359383E0,2.2017627E0,1.7390126E0,1.1760112E1,1.3437318E1,3.253067E0,1.0946115E0,2.491818E0,5.0167108E0,1.383048E0,1.0754292E0,1.1263335E0,4.1626E0,7.5975113E0,2.1800828E0,1.1257236E1,2.9753268E0,1.1872734E0,5.61894E0,1.9785717E0,1.0813996E0,1.0986832E0,5.939207E0,5.3180285E0],"tree_param":{"num_deleted":"0","num_feature":"9","num_nodes":"45","size_leaf_vector":"1"}},{"base_weights":[-1.466639E-1,2.309317E-2,-6.291998E-1,-6.7203216E-2,7.595873E-1,-3.5915795E-1,-8.7020114E-2,2.2656684E-1,-2.2350557E-1,9.700465E-2,-6.666542E-3,-5.3690886E-1,9.2021875E-2,-3.3105743E-1,6.0325664E-1,-2.9512286E-1,7.403154E-2,-9.906661E-3,-6.352253E-2,5.4717332E-2,-5.0348222E-2,-6.34011E-2,-9.7455345E-2,2.1740079E-1,1.414168E-1,-3.5036817E-1,3.8377877E-2,7.1836315E-2,-5.174738E-1,7.376291E-1,-3.6770865E-1,-4.0881374E-1,8.972774E-2,-1.1822402E-2,-6.572055E-2,-2.9620815E-2,1.149741E0,-1.4225265E-3,-5.4836232E-2,-5.0627154E-1,-1.6879749E-2,6.557568E-2,-3.8123474E-2,1.92201E-2,1.7448533E-1,-1.1417182E-1,-5.634169E-1,-4.370784E-1,5.1536977E-2,-3.7473306E-2,1.8383572E-2,-6.3701653E-1,-3.2448086E-1,-7.5409473E-3,-5.501578E-2,-1.3078717E-2,-6.8533435E-2,1.0149504E-2,-6.941191E-2],"categories":[],"categories_nodes":[],"categories_segments":[],"categories_sizes":[],"default_left":[0,0,0,0,0,0,0,0,0,0,0,0,0,0,0,0,0,0,0,0,0,0,0,0,0,0,0,0,0,0,0,0,0,0,0,0,0,0,0,0,0,0,0,0,0,0,0,0,0,0,0,0,0,0,0,0,0,0,0],"id":28,"left_children":[1,3,5,7,9,11,-1,13,15,-1,-1,17,19,21,23,25,-1,-1,-1,-1,-1,-1,27,29,-1,31,-1,-1,33,35,37,39,41,-1,-1,-1,43,-1,-1,45,47,-1,-1,-1,-1,49,51,53,-1,-1,-1,55,57,-1,-1,-1,-1,-1,-1],"loss_changes":[5.4965005E0,3.4075432E0,8.2324696E-1,2.1572216E0,1.0373249E0,8.460064E-1,0E0,3.6507034E0,2.3202524E0,0E0,0E0,2.5010753E-1,1.2677795E0,4.5267892E-1,2.8715E0,1.224309E0,0E0,0E0,0E0,0E0,0E0,0E0,2.1830919E0,2.7263744E0,0E0,7.4129915E-1,0E0,0E0,1.4940739E-1,2.3013911E0,2.772295E-1,9.220252E-1,1.3247068E0,0E0,0E0,0E0,1.6564832E0,0E0,0E0,3.720746E-1,1.541672E0,0E0,0E0,0E0,0E0,3.58645E-1,8.776808E-2,1.1516404E-1,0E0,0E0,0E0,1.980958E-1,1.0122759E0,0E0,0E0,0E0,0E0,0E0,0E0],"parents":[2147483647,0,0,1,1,2,2,3,3,4,4,5,5,7,7,8,8,11,11,12,12,13,13,14,14,15,15,22,22,23,23,25,25,28,28,29,29,30,30,31,31,32,32,36,36,39,39,40,40,45,45,46,46,47,47,51,51,52,52],"right_children":[2,4,6,8,10,12,-1,14,16,-1,-1,18,20,22,24,26,-1,-1,-1,-1,-1,-1,28,30,-1,32,-1,-1,34,36,38,40,42,-1,-1,-1,44,-1,-1,46,48,-1,-1,-1,-1,50,52,54,-1,-1,-1,56,58,-1,-1,-1,-1,-1,-1],"split_conditions":[1.3155891E0,9.49907E0,9.049282E0,9.548034E-1,3.0876152E1,7.296606E0,-8.7020114E-2,3.53742E-1,1.3708807E0,9.700465E-2,-6.666542E-3,1.712743E-1,3.196264E1,2.4846347E-2,6.7837195E0,4.8089808E-1,7.403154E-2,-9.906661E-3,-6.352253E-2,5.4717332E-2,-5.0348222E-2,-6.34011E-2,1.5640428E-2,1.2963408E1,1.414168E-1,3.0775896E1,3.8377877E-2,7.1836315E-2,3.475161E-1,2.3476667E0,3.0775896E1,7.296606E0,1.8022837E1,-1.1822402E-2,-6.572055E-2,-2.9620815E-2,7.2339535E-1,-1.4225265E-3,-5.4836232E-2,4.405676E0,-4.1120472E-8,6.557568E-2,-3.8123474E-2,1.92201E-2,1.7448533E-1,1.0296238E1,1.2963408E1,8.881708E0,5.1536977E-2,-3.7473306E-2,1.8383572E-2,1.646338E1,2.9569384E1,-7.5409473E-3,-5.501578E-2,-1.3078717E-2,-6.8533435E-2,1.0149504E-2,-6.941191E-2],"split_indices":[8,4,8,5,3,4,0,5,7,0,0,6,3,5,4,8,0,0,0,0,0,0,6,3,0,0,0,0,5,4,0,4,3,0,0,0,5,0,0,4,8,0,0,0,0,0,3,4,0,0,0,0,0,0,0,0,0,0,0],"split_type":[0,0,0,0,0,0,0,0,0,0,0,0,0,0,0,0,0,0,0,0,0,0,0,0,0,0,0,0,0,0,0,0,0,0,0,0,0,0,0,0,0,0,0,0,0,0,0,0,0,0,0,0,0,0,0,0,0,0,0],"sum_hessian":[6.5923584E1,4.947154E1,1.6452044E1,4.48781E1,4.5934367E0,8.93295E0,7.519093E0,1.542927E1,2.9448832E1,3.5222375E0,1.0711993E0,6.271975E0,2.660975E0,6.269499E0,9.159771E0,2.8057781E1,1.3910507E0,1.5182471E0,4.7537284E0,1.5542222E0,1.1067528E0,1.9833155E0,4.2861834E0,7.0657635E0,2.0940073E0,2.6393908E1,1.663873E0,1.2153153E0,3.0708683E0,3.6022704E0,3.4634933E0,2.3362413E1,3.0314944E0,1.2747251E0,1.7961432E0,1.1068456E0,2.4954247E0,1.5362567E0,1.9272366E0,1.8476377E1,4.886036E0,1.1985881E0,1.8329062E0,1.4635415E0,